-0.462357342 -0.06354084 0.402875245 0.278610229 0.418030649 -0.3242142 0.495550334 1.10009921 0.455306143 -0.326206118 0.543657839 0.8271128 0.735575736 -0.105915144 -0.9084736 0.440316558 -0.174130931 -0.41283384 -0.172881752 -0.07881479 -0.0678291842 -0.425477147 -0.5091667 -0.131035388 0.374953538 -0.0530172437 -0.04601433 -0.04392512 -0.0452957861 -0.0465796851 -0.0164398439 -0.0273367483 -0.0450324342 0.003240378 0.0242683 0.048880484 0.003662417 0.0406181738 0.036674872 0.0315409377 0.03624955 -0.0255729724 0.034720052 -0.0144980624 -0.08418832 0.03681406 -0.0827125758 -0.0672356039 -0.07087683 -0.0333164372 -0.317822665 0.3735025 0.472575426 0.472742647 -0.01023867 -0.5523615 -0.245148122 0.335524231 1.0457896 0.6123972 -0.464377046 -0.465970725 0.06431104 0.911628067 0.8020995 -0.6649683 -0.8114868 -0.108990423 0.500663042 0.612307668 -0.8184727 -0.512375534 -0.0424816832 0.370402962 0.102099955 0.4776278 0.3814612 0.346393853 0.37585777 0.575033367 0.477774441 0.6754487 0.801740766 0.787257135 0.606914043 -0.230095848 0.363362 0.499072671 0.165770724 -0.005781513 -0.6519558 -0.560606956 -0.405904561 -0.0944706649 -0.276064724 -0.6103332 -0.8038934 -0.790214837 -0.6604593 -0.0533305742 0.09435452 0.428777754 0.658776939 0.5316234 0.0572924055 0.3077472 0.8413612 0.8610716 0.20568794 -0.379621267 0.474182278 0.903034449 0.286588579 -0.369384617 -0.32983157 0.484011441 0.379258037 -0.194510356 -0.588529468 -0.126545012 0.5830272 0.154436022 -0.283093572 -0.420008451 -0.305254519
1.36898661 -0.003641948 -0.4532477 -0.720797837 -2.10748053
-0.0063 -0.0001 -0.0064 -0.0019 -0.0148 0.0082 0.0284 0.0154 0.0219 -0.0052 -0.0232 -0.0282 -0.0035 -0.0073 0.0053 -0.0122 0.0088 0.0226 0.0277 -0.0071 0.0198 0.0025 0.0066 -0.0177 -0.0218 0.0002 0.0093 -0.0025 0.0109 -0.0009 -0.0129 0.019 0.0182 0.0182 0.0374 0.015 -0.0194 -0.0059 0.0006 0.0091 0.0324 0.0004 0.0068 -0.03 -0.0496 -0.0939 -0.0094 0.0296 0.0456 0.0173 -0.0008 0.0054 -0.0146 -0.0054 0.0012 -0.0354 -0.0283 -0.0572 -0.0856 -0.0306 -0.0104 0.0481 0.0174 0.0201 0.0037 -0.0118 -0.0051 -0.0055 -0.0205 -0.0182 -0.0512 -0.082 0.0091 0.0477 0.033 -0.01 0.006 -0.0014 -0.001 0.0114 0.0146 -0.0109 0.0121 -0.0111 -0.0944 0.0092 0.0555 0.0447 -0.0393 0.0096 -0.0118 0.0062 0.0259 0.0377 0.0185 0.0648 -0.024 -0.0862 -0.0262 0.0232 -0.0009 -0.0371 -0.0002 -0.0125 -0.014 -0.0203 0.0334 -0.0147 0.0313 -0.01 0.0106 -0.0091 0.0264 0.0197 -0.0408 -0.0277 -0.0473 0.0023 -0.0166 0.0306 0.0412 0.1016 0.0376 0.0341 0.0186 0.0512 0.0205 0.0053 -0.0004 -0.0218 0.0014 -0.0018 -0.0055 -0.0078 0.0504 0.0141 -0.0086 -0.0344 0.0363 0.0044 -0.0386 0.0031 -0.0116 -0.0001 -0.0021 -0.0176 -0.0368 -0.0008 -0.0058 -0.0257 -0.03 0.0213 0.0118 0.0233 0.0072 -0.0107 0.0066 -0.0013 -0.0056 -0.0157 -0.0108 -0.01 -0.0049 -0.0274 0.0226 0.0033 0.0283 0.0242 0.0133 -0.0049 0.0021 0.0034 -0.009 -0.0047 0.0042 0.0008 0.0082 0.0004 -0.0025 0.0012 0.0 -0.0021 0.0025 0.0003 0.0017 0.0028 -0.0031 0.0043 -0.0056 -0.0008 -0.0021 -0.0018 0.0038 -0.0024 -0.0018 -0.0068 0.0035 0.0006 -0.0035 -0.0007 -0.0057 0.0066 -0.0049 -0.0081 -0.0062 0.0013 -0.0047 0.0037 -0.0006 0.0049 0.0163 0.0056 -0.0097 0.0038 0.0092 -0.0058 0.0049 -0.0046 -0.0004 -0.0042 -0.0046 -0.007 -0.0081 0.0068 0.0016 -0.0069 0.0122 -0.0128 -0.0003 -0.0139 -0.0074 0.0022 -0.0028 0.0085 0.0037 0.0007 0.0036 0.0009 0.01 -0.0045 -0.0095 0.0017 -0.0096 0.0075 -0.0004 -0.001 -0.0026 -0.006 -0.0014 -0.0046 0.0082 0.0063 0.0025 0.01 -0.0034 0.0132 0.0006 0.0053 -0.0013 -0.0026 -0.0045 0.0061 -0.0008 0.0061 -0.0027 -0.0001 -0.001 0.0099 0.0001 -0.0032 -0.007 0.0006 0.0001 0.0056 -0.0015 0.018 0.0024 0.0034 0.0037 -0.0065 0.0085 -0.0037 -0.0005 -0.0079 0.0055 0.0026 -0.0008 -0.0092 0.0007 -0.009 -0.0035 0.0077 0.0034 -0.0074 -0.0076 -0.0017 -0.005 -0.0019 -0.0002 0.0035 -0.001 0.0042 0.0028 -0.0033 -0.0032 0.0037 -0.0009 0.0018 -0.0024 0.0001 -0.0005 0.0014 0.0004 -0.0017 0.002 -0.006 -0.0007 -0.0053 -0.001 -0.0001 0.0011 -0.0015 -0.0019 0.0015 0.0067 0.0011 -0.001 0.0021 0.0043 -0.0059 0.0032 -0.0018 -0.0002 0.0051 0.0041 -0.0021 0.0001 -0.0011 0.0011 -0.0152 -0.0195 -0.0196 -0.0069 -0.0085 -0.0017 -0.0091 0.0024 0.0164 0.0256 0.0194 0.0086 -0.0309 -0.0063 -0.0008 -0.0255 -0.0148 -0.0054 -0.0129 0.0345 0.0478 0.0167 0.0081 0.011 -0.0004 0.0061 0.0141 0.0016 -0.0185 -0.0138 -0.0389 0.0095 0.006 -0.0202 -0.0067 -0.0184 -0.0027 0.013 0.0274 0.0342 0.0277 0.0294 -0.0068 0.0089 -0.019 -0.0236 0.0028 0.0295 0.0499 0.0193 -0.0045 0.0073 0.0128 -0.0057 0.0096 0.0242 0.0013 -0.0153 -0.0236 -0.0613 -0.0173 0.0117 -0.0124 -0.0221 -0.0138 -0.0068 0.0195 0.0231 0.0217 -0.0024 0.0136 0.001 -0.0176 -0.0437 -0.0238 -0.0238 -0.0229 0.0109 0.031 0.0479 0.044 0.0498 0.0225 -0.0057 -0.0157 -0.0351 -0.0698 -0.028 -0.0038 -0.0098 0.0081 -0.0045 -0.0185 -0.0164 -0.0102 -0.0098 0.0061 -0.0144 0.0035 -0.021 -0.003 -0.0093 -0.0014 0.0029 0.0116 -0.0006 0.0157 0.0189 -0.0389 0.0007 0.0355 0.0678 0.0276 0.0032 0.0383 0.0145 0.0154 0.0185 0.0109 0.0417 0.0413 0.0153 -0.023 -0.0462 -0.017 -0.0179 -0.0106 -0.0169 0.007 -0.0028 -0.0128 -0.0099 0.0028 0.0465 0.0393 -0.0074 -0.0355 -0.0108 0.001 0.003 0.0006 -0.0062 -0.0025 -0.0278 -0.0418 -0.0298 -0.0191 -0.0043 -0.0013 0.014 0.0135 0.0132 -0.001 -0.006 0.0016 -0.0112 -0.0018 0.0044 -0.0384 -0.0446 0.0008 0.0183 -0.003 0.0013 0.0318 0.0151 -0.0079 0.0044 -0.0075 -0.0003 -0.0008 0.0066 -0.0122 0.0054 -0.0201 -0.0219 -0.0368 0.0048 -0.0011 0.0064 0.0038 0.0083 -0.0041 0.0031 0.0063 -0.0219 -0.0251 -0.0409 -0.0355 0.0073 0.0021 0.027 0.0157 -0.0188 0.0059 0.0018 -0.009 0.0008 -0.0468 -0.0583 -0.0336 0.0128 0.039 0.0317 0.0213 0.0058 -0.0116 -0.006 0.0017 0.0012 -0.0335 -0.0819 -0.0382 0.0065 0.0215 0.0395 0.0368 0.0139 -0.0013 -0.0157 0.0082 -0.0336 -0.0217 -0.0131 0.0007 0.0144 0.035 0.0596 0.0318 0.0214 0.0038 0.0003 0.0049 -0.0018 0.0002 -0.0004 -0.019 -0.0131 -0.021 0.0149 -0.0032 -0.0451 0.021 0.0058 0.0069 0.0039 -0.0315 0.0116 0.0215 0.0017 0.0268 -0.0028 0.0108 -0.0207 -0.0107 0.0106 0.0145 0.0084 0.0128 0.0 -0.0059 0.0554 0.0063 0.0474 -0.0052 0.006 -0.0297 0.021 0.0189 0.0345 -0.0011 0.0012 0.0146 0.0095 -0.0007 0.0417 -0.0129 -0.0346 -0.0188 -0.0059 0.0441 0.035 -0.0016 -0.0229 -0.0075 -0.0108 0.034 0.0196 -0.0174 -0.0377 0.0084 -0.0153 -0.0079 -0.0256 0.0169 0.0193 0.0227 -0.0169 0.0236 0.0078 0.0068 -0.0257 -0.056 0.026 0.0327 -0.0088 -0.0231 0.0408 0.0214 0.0063 0.0097 0.0043 -0.0032 -0.012 0.0089 -0.0087 0.0334 0.0321 0.0018 0.0043 0.0326 0.0198 -0.006 0.0081 -0.0025 0.0004 0.0066 0.002 -0.0168 0.0292 0.0141 0.0016 0.0332 0.021 -0.0088 -0.0058 0.0079 -0.0008 -0.0169 -0.0044 -0.0195 0.0021 -0.0283 0.0038 0.0158 0.0176 0.0185 -0.0062 -0.013 -0.0182 -0.0109 -0.01 0.0 0.0016 0.015 0.0001 0.0078 0.0016 0.0382 0.0128 0.0076 -0.0226 -0.0195 0.0191 0.0236 0.0703 0.0559 0.0733 0.0415 0.0288 -0.0333 -0.0341 -0.0064 0.0086 -0.0075 -0.0341 -0.001 0.0187 0.0546 0.0374 0.0324 0.0082 -0.0325 -0.0904 -0.0826 0.0007 -0.0047 0.0562 0.0347 0.0027 -0.0027 -0.0036 0.0064 0.0106 -0.0476 -0.0484 -0.0302 -0.0145 0.032 0.0283 0.0431 0.041 0.0119 0.0391 -0.0113 -0.0077 -0.0312 -0.0619 -0.0536 -0.0346 -0.08 -0.0373 0.0048 0.0002 0.0268 0.0001 0.0033 -0.0165 -0.058 -0.0029 0.0074 -0.0102 -0.0098 -0.0527 -0.0419 -0.0143 -0.0221 0.0333 0.0292 -0.0066 0.0275 0.0138 0.0092 -0.0031 -0.0556 -0.0895 -0.077 0.0043 -0.0137 -0.0202 0.0216 0.0104 0.0257 0.0297 0.0384 0.0425 -0.015 -0.0926 -0.0864 -0.0864 -0.0415 0.0468 0.0096 0.0076 -0.0243 -0.0007 -0.033 -0.006 0.0049 -0.068 -0.0408 -0.021 -0.0117 -0.011 0.0 -0.0287 0.0037 -0.0115 -0.0374 -0.0115 -0.0383 -0.046 -0.0426 0.0178 -0.0048 -0.0273 0.003 -0.0175 0.0087 0.0164 -0.0086 0.0117 -0.0144 -0.0285 0.026 0.0575 0.0266 0.0504 0.0472 -0.0082 -0.0161 0.0 0.0004 0.0085 0.0121 0.0132 0.0135 0.0404 0.0357 0.0186 0.0385 0.0034 0.0022 0.0134 0.0106 0.0062 -0.0053 -0.0018 -0.0062 -0.0132 -0.0262 0.0086 0.0027 0.0066 0.0189 0.019 0.01 -0.0079 -0.0193 0.0072 -0.0073 0.0173 -0.0085 -0.0181 -0.0083 -0.0071 -0.0081 0.0204 -0.0037 0.0134 -0.0011 -0.0316 0.014 0.0066 -0.0092 -0.0109 -0.0467 -0.0228 -0.025 -0.0316 0.0083 0.008 0.0224 0.0004 -0.0234 0.0165 0.0143 0.002 -0.0082 -0.0511 -0.0125 -0.0508 -0.0374 0.0034 0.0121 0.0249 0.0006 -0.0247 0.0087 -0.0032 -0.0025 0.0129 0.0076 0.0117 0.0129 -0.0164 0.0134 -0.0057 0.0583 0.0506 0.0052 -0.003 -0.0039 -0.0008 0.0305 0.0369 0.0024 -0.0356 -0.0509 -0.0019 0.0094 0.0182 -0.0074 -0.0034 0.0051 -0.0164 0.0302 -0.0078 0.0315 -0.0086 -0.0329 -0.0287 0.0343 -0.0243 0.0232 -0.0267 -0.0174 0.0136 -0.006 0.0085 0.0225 0.028 0.0015 -0.0594 -0.0476 0.002 -0.0419 -0.0428 -0.0249 -0.0221 0.0063 0.0124 -0.0067 0.0169 0.0524 0.0582 0.0104 0.0273 0.0373 0.0044 0.0071 -0.0328 -0.041 -0.0368 -0.0082 -0.0103 0.0023 0.0031 -0.0091 -0.0138 0.0096 0.0076 0.0578 0.0092 -0.0008 -0.0021 -0.005 -0.0116 0.0146 0.021 0.0312 0.007 0.0032 0.0517 0.0123 0.0427 0.0081 -0.0097 -0.0217 0.0013 0.0126 0.0069 -0.0053 -0.0172 -0.0361 -0.002 0.0164 0.0001 0.0291 0.0225 0.0189 0.0113 -0.0095 -0.0005 0.001 0.0094 -0.0036 -0.0255 -0.0002 -0.02 -0.0006 -0.0236 0.0064 -0.0064 -0.0007 0.0011 0.0012 0.0035 -0.003 0.0004 -0.0003 -0.0024 0.0049 -0.0024 -0.0011 -0.0003 0.0004 -0.0047 0.0047 0.0034 -0.0017 0.0068 0.0013 -0.0005 -0.0058 -0.0087 -0.0028 -0.0034 -0.0021 -0.0013 0.0013 -0.0015 0.0048 -0.0049 -0.0067 0.0079 0.0046 0.0058 -0.0039 0.0102 0.0025 0.0094 -0.0004 0.0011 -0.0005 0.0033 -0.0014 0.0038 0.0124 -0.0015 -0.0047 -0.0049 -0.0051 -0.0067 -0.0013 0.0 -0.0024 -0.0028 -0.0025 -0.0029 0.003 -0.0102 0.0033 -0.0068 0.0058 0.0049 -0.0026 0.0036 0.0051 -0.0004 0.0062 -0.0005 0.0047 0.009 -0.0019 0.0007 -0.01 0.0067 0.0072 -0.007 -0.001 -0.0019 -0.0008 -0.0059 -0.0072 0.0073 -0.0076 0.0014 -0.0031 0.0004 0.0023 0.0007 0.0038 -0.016 0.0017 0.0013 -0.002 0.0032 0.0025 -0.0096 -0.0075 -0.007 -0.0012 -0.0104 -0.0032 0.0102 -0.0173 -0.0011 -0.0008 0.0019 -0.0013 0.0027 0.0063 -0.004 -0.0051 -0.0068 0.0123 0.01 -0.0004 0.0088 0.0034 -0.005 -0.0015 0.0059 0.0037 0.0034 0.0013 0.0018 0.0049 0.0021 -0.005 -0.0008 -0.0015 -0.001 0.0042 -0.0025 0.0012 0.0073 -0.0006 -0.0013 0.0048 0.002 0.0073 0.0029 0.0092 -0.0009 0.0064 -0.0026 -0.0034 -0.0034 0.0003 -0.0003 -0.0009 0.0023 -0.0049 -0.0007 -0.0064 -0.0033 -0.0022 -0.0003 -0.003 -0.0034 -0.0009 -0.0007 0.002 -0.0041 0.0011 0.0053 0.0032 -0.0026 -0.0025 -0.0017 0.0009 -0.0005 0.0018 0.0147 0.0096 0.0001 0.0076 -0.017 -0.0063 0.0236 0.0116 0.0135 0.0168 0.0109 0.016 0.0134 -0.0015 -0.009 -0.0005 -0.0226 0.0086 0.0052 0.0105 0.0267 -0.0016 0.0148 0.0321 0.0133 -0.018 -0.032 -0.0393 -0.0231 0.0078 0.0464 0.0437 0.0128 -0.046 -0.0443 -0.0081 0.0043 -0.0069 -0.0144 -0.01 -0.0039 0.0057 0.0422 -0.0022 -0.006 0.0401 0.0017 -0.055 -0.0424 -0.0421 -0.0042 0.0081 0.0413 -0.0045 -0.037 -0.0464 -0.0246 -0.0272 0.0393 0.0175 -0.0353 -0.0115 0.0042 -0.025 0.0093 -0.0258 -0.0508 -0.0287 -0.0415 -0.0058 -0.0004 -0.0016 -0.0044 -0.0251 -0.0236 -0.0331 -0.0265 0.0105 0.0043 -0.0065 -0.0088 -0.0333 -0.0106 -0.01 -0.0294 0.0051 -0.0052 0.0149 0.011 0.0007 0.0166 0.0306 -0.0082 0.0023 -0.0062 0.0203 0.0095 0.0126 0.02 0.0335 0.0345 0.0389 0.018 -0.0174 -0.0049 0.0033 -0.017 -0.0249 -0.0622 -0.0015 -0.0029 0.0083 -0.0299 0.0084 -0.0008 -0.0012 -0.0129 -0.0233 -0.0201 -0.0139 0.0132 0.0023 0.0034 -0.0095 -0.0067 -0.0402 -0.03 -0.016 -0.013 0.0073 0.0158 0.043 0.0465 0.0498 0.0343 -0.0301 -0.0398 -0.0093 -0.0173 -0.0073 0.0027 -0.0059 0.0056 0.006 -0.029 -0.0065 -0.0115 -0.0006 -0.0138 -0.0034 0.0031 0.0046 0.0212 0.0119 0.0051 0.0216 0.0107 -0.0061 -0.0005 -0.0094 -0.0086 0.027 -0.0019 0.0118 0.031 0.015 0.0092 -0.0004 0.0049 -0.0126 -0.0124 0.0073 -0.0188 -0.0072 0.011 0.0025 -0.0402 -0.0291 -0.0079 -0.0072 -0.0198 -0.0085 -0.0202 -0.0121 0.021 -0.0018 0.0039 0.0139 0.0111 -0.0454 -0.0094 -0.0113 -0.0051 0.0056 -0.0354 0.0021 0.0029 -0.0189 0.0437 0.0264 0.0072 0.0015 0.0276 0.0243 0.0285 0.0042 0.0157 -0.02 0.0242 0.0069 0.0472 0.0684 0.0563 0.0279 0.0277 0.0294 -0.0005 0.0344 0.0057 0.0006 0.008 0.0364 0.0102 0.0502 0.0892 0.0108 0.0121 0.0106 0.0399 0.0193 -0.0126 -0.0083 -0.0071 0.0137 0.006 -0.0097 0.0146 0.0124 0.0172 -0.0373 -0.0169 -0.0036 0.0296 -0.0429 -0.0228 0.0006 0.0034 0.0153 0.0133 -0.002 0.0437 -0.0294 -0.0447 0.0048 0.0191 -0.0116 -0.0527 -0.0093 -0.0009 -0.0027 0.0304 0.0031 -0.0023 -0.0237 -0.004 -0.0219 0.0323 0.0085 0.0132 -0.0495 -0.0191 0.0098 0.0152 0.028 0.007 0.0321 -0.0395 0.0283 -0.0464 -0.0177 -0.0352 -0.0193 -0.0076 -0.0075 0.0248 -0.0002 0.0068 0.0078 -0.0712 -0.0553 0.0011 0.0027 0.0226 -0.0081 0.006 -0.0083 -0.0027 0.0155 -0.006 -0.0136 -0.0163 -0.0364 -0.0308 0.0416 0.0253 0.0407 -0.0145 -0.0128 0.0164 0.0131 0.0105 -0.002 0.0122 -0.0276 -0.0128 0.0143 0.0388 0.0436 0.0103 -0.0234 -0.0142 -0.0018 0.006 -0.0146 -0.0082 -0.0005 -0.0027 0.0009 0.0302 0.0513 0.0278 0.0289 -0.0166 -0.0153 0.0054 0.0033 -0.0105 -0.0096 -0.0149 0.0115 0.001 0.018 -0.0085 0.0164 -0.002 0.0259 -0.0067 0.0008 -0.0113 -0.0058 -0.0064 -0.0042 0.0128 0.0106 0.0095 -0.0054 -0.0176 0.0092 0.0212 -0.01 0.003 -0.0185 -0.0246 -0.0107 -0.0275 -0.0128 -0.0416 -0.0257 -0.0434 -0.0396 0.0254 0.071 0.0536 0.0295 0.0071 -0.0052 0.0097 0.0054 -0.0544 -0.0103 -0.1159 -0.1132 -0.036 -0.0002 0.0249 0.031 0.0329 -0.0091 0.0012 0.0228 0.0294 0.0183 0.036 0.0261 -0.0233 0.0264 -0.0115 -0.0068 0.0187 0.0054 -0.017 -0.0084 -0.0147 -0.0106 0.0025 0.025 0.0267 0.0383 0.0342 -0.0079 -0.0081 -0.0259 -0.0318 -0.0253 -0.0181 -0.0113 0.0072 -0.0183 0.0186 0.0788 0.1115 0.1329 0.0185 -0.0448 -0.1083 -0.0739 -0.0193 -0.0414 -0.0038 -0.0262 -0.0303 0.0247 0.0385 0.0311 0.0195 -0.0242 -0.0184 -0.0188 0.0197 0.0009 0.0 -0.0253 -0.043 -0.0207 -0.0147 -0.0132 -0.0278 -0.0348 -0.026 -0.0502 -0.0274 -0.0126 -0.0145 0.0078 -0.0273 -0.0183 -0.0044 0.0195 -0.0008 -0.0404 0.0168 -0.0317 -0.066 -0.0409 0.013 0.0319 0.0223 -0.0039 -0.0231 -0.0047 -0.0053 -0.0032 -0.0193 0.0429 -0.0091 -0.0541 -0.0508 -0.0316 0.0076 0.0297 -0.0225 -0.002 -0.0233 -0.0375 -0.0471 -0.0496 0.0065 0.0804 0.0338 0.0273 -0.0041 -0.0294 0.0026 0.0061 -0.0003 0.0102 0.0244 0.0186 0.0193 0.0409 0.0658 0.056 0.0267 0.0052 -0.0065 -0.0067 0.0047 -0.0115 -0.0005 -0.0186 0.0035 -0.014 0.0086 0.0001 0.0486 0.0138 -0.021 0.0121 -0.0171 0.0072 -0.0028 -0.0008 -0.0237 0.0057 -0.038 -0.0261 -0.0102 0.0294 0.0345 -0.0041 0.03 -0.0057 0.0066 0.0092 -0.0081 -0.0097 -0.0154 -0.0363 -0.0399 -0.0546 0.0193 -0.0301 -0.0151 0.0341 0.0029 0.0091 0.0003 0.0109 0.0172 -0.008 -0.0465 -0.0348 -0.0547 0.0039 0.0024 0.0017 0.0188 0.0173 -0.0158 -0.0112 0.0111 0.0006 0.0446 0.0108 -0.0012 0.0171 -0.0054 -0.037 -0.04 -0.0268 0.006 -0.0152 -0.023 -0.0252 -0.0223 -0.0081 0.0606 0.0833 0.0403 -0.008 -0.015 -0.0163 -0.0137 0.0118 -0.011 -0.0045 -0.0089 -0.0185 0.0367 0.0406 0.0774 0.1032 0.0393 -0.0134 0.0043 -0.0062 0.0033 0.0139 0.0058 -0.0143 -0.0332 -0.0008 -0.001 0.0467 0.0508 0.0288 -0.0366 0.0003 0.0012 0.0193 -0.0016 0.022 -0.0215 -0.0153 -0.0148 -0.0586 0.036 -0.0083 -0.013 -0.017 0.0269 0.0207 0.0472 0.0064 0.0126 -0.0074 -0.0061 0.0096 -0.0218 0.0331 -0.0095 -0.0051 -0.0082 -0.0063 -0.0002 0.0263 0.0 -0.0014 -0.0369 -0.0204 -0.0216 -0.0045 -0.0005 -0.0035 0.0087 -0.0119 -0.0195 -0.0292 -0.0113 0.0101 0.0122 -0.0105 -0.0193 -0.0037 -0.0003 0.0237 -0.0222 -0.0098 -0.011 -0.0115 -0.0079 0.0042 -0.0033 -0.0013 -0.0094 -0.0065 0.008 -0.0038 0.0217 0.004 0.0055 -0.0212 -0.0123 -0.0102 -0.0149 -0.0021 -0.0022 0.0031 -0.0078 -0.0013 0.004 0.0027 0.0005 -0.0032 -0.003 0.0061 -0.0058 -0.0019 0.0034 -0.0069 -0.0033 0.0044 0.0022 -0.0078 -0.0074 -0.0023 0.0036 -0.0031 0.0039 -0.0005 -0.0003 -0.0006 -0.0008 0.0004 -0.0079 0.0131 -0.0035 0.0046 -0.0031 0.0068 -0.0038 0.0069 -0.0049 -0.0017 0.0058 0.0009 0.0098 -0.0061 0.0005 0.0064 -0.0007 -0.0062 0.0005 -0.0019 0.005 0.0018 -0.0072 0.0004 0.0051 -0.0016 0.0001 0.0063 -0.0084 0.003 0.0011 -0.0154 0.0011 -0.0032 -0.002 0.001 -0.0031 0.0015 -0.0038 -0.0018 0.0067 -0.0115 -0.0059 0.0097 -0.0019 -0.0064 -0.0023 -0.0022 0.0009 0.0046 -0.0008 0.0067 -0.0134 0.0085 -0.0141 0.0077 -0.0064 -0.0033 0.004 0.0004 0.0083 -0.0022 0.0061 -0.0021 -0.0009 0.0004 0.0076 -0.0005 0.0013 -0.0009 -0.0087 -0.0036 -0.0066 -0.0045 -0.0039 0.0099 -0.0009 -0.0079 0.0034 0.0024 -0.0052 -0.0009 0.0016 0.0047 0.0064 0.0062 -0.0043 0.0016 -0.007 0.0047 -0.0033 -0.0088 -0.0228 0.0001 -0.0034 -0.007 -0.0073 -0.0056 -0.002 0.0003 0.0059 0.0039 -0.0013 0.0026 -0.0046 0.0088 -0.0021 0.0135 -0.0055 -0.002 0.0019 -0.0144 0.0023 -0.001 0.0004 -0.0045 -0.0086 -0.0048 0.0064 -0.0001 0.0028 0.0038 0.0039 0.0024 0.0062 -0.0037 0.0005 0.002 0.0039 -0.0014 -0.0014 0.0019 0.007 0.0014 -0.0013 0.002 -0.0031 -0.0054 0.004 -0.001 -0.0056 -0.0052 -0.014 0.0137 0.0073 -0.0014 -0.0145 -0.0204 -0.0273 -0.018 -0.0249 -0.0126 -0.0109 0.0028 0.0205 0.0206 0.0023 -0.0063 -0.0476 -0.0191 -0.0224 -0.0039 -0.0189 -0.0123 0.0014 0.0037 0.0061 -0.0011 -0.0182 0.0085 0.0369 0.0307 0.0421 0.039 0.0293 -0.0003 0.0076 0.017 -0.0069 0.0085 0.0065 0.0194 0.0041 -0.001 0.0437 0.0379 0.0219 0.0175 0.0092 0.0195 -0.0261 -0.0115 -0.0013 -0.0069 0.0168 0.0007 -0.0491 0.026 0.0286 -0.0108 -0.0161 0.0231 0.0152 0.0224 0.0085 -0.0045 -0.0156 -0.0521 -0.0096 -0.0344 -0.0409 -0.0431 -0.0019 0.002 0.0169 0.0159 0.0241 0.0075 0.0044 -0.0217 -0.0407 -0.0584 -0.0728 -0.0521 -0.0444 -0.0128 -0.0416 -0.0759 -0.0405 -0.0257 -0.0221 0.0188 0.0042 -0.0188 -0.0251 -0.0113 0.0072 0.0176 0.034 -0.0268 -0.0121 0.0155 -0.014 -0.0012 0.0225 0.0116 0.0063 0.0 -0.0117 0.0019 0.0331 0.0342 0.0314 0.039 0.0437 0.0435 0.0165 -0.0047 0.0029 0.0232 -0.0219 -0.0111 0.0076 0.0129 0.0342 0.0637 0.0166 0.0292 0.0242 0.003 -0.0005 0.0014 0.0307 0.0203 -0.0373 -0.0742 -0.0537 -0.0107 0.0033 0.0017 0.0005 0.0098 0.0035 0.0012 0.0043 0.0072 0.0031 -0.0073 -0.0059 -0.012 -0.023 -0.0157 -0.0183 -0.0246 -0.0159 -0.0089 0.0019 -0.0086 0.0089 0.0205 0.0264 0.0086 -0.0175 -0.0049 -0.0005 -0.0027 0.0143 -0.0073 -0.0063 0.0042 0.016 -0.029 -0.027 -0.04 -0.0044 -0.0107 -0.0036 0.011 0.0051 -0.0264 -0.0119 -0.0109 0.0153 -0.0013 -0.0275 -0.0086 -0.0445 0.0192 0.0016 -0.024 0.012 0.0072 -0.0111 0.0041 -0.0145 0.0014 0.0078 -0.0288 -0.0062 -0.0813 -0.0472 -0.0838 -0.021 -0.0364 -0.0035 -0.0113 -0.0018 0.0115 -0.0198 -0.002 0.0134 -0.0223 -0.0385 -0.045 -0.1107 -0.0133 -0.0128 -0.0033 0.0313 0.0119 0.0104 -0.0254 0.0039 -0.0198 -0.0172 -0.0249 0.0225 0.0135 -0.0333 0.046 0.0531 0.0142 0.0 -0.0106 0.0131 -0.0178 -0.0015 0.0196 0.0584 0.0315 0.0691 0.0046 -0.0259 0.0324 -0.0017 0.0051 -0.0121 0.0158 -0.0092 -0.0207 0.0686 0.0486 0.0303 0.0226 0.0328 0.0042 0.0177 0.0108 0.0032 0.0235 0.0188 0.012 -0.0062 -0.0121 0.0403 0.0442 0.0174 0.0052 -0.01 0.0415 0.0158 0.002 0.0161 0.0208 0.0012 -0.0201 -0.002 0.0722 0.0871 0.0506 0.0027 -0.0456 -0.0003 -0.029 -0.0192 0.0047 0.0047 -0.0037 0.0142 0.0339 0.0553 0.051 0.0045 -0.0285 -0.0054 -0.0034 -0.0316 -0.0202 -0.0162 -0.022 0.0059 0.032 0.027 0.024 0.0109 -0.0285 -0.0274 0.0035 0.0064 -0.0067 -0.0014 0.0052 -0.0057 0.0261 -0.0139 0.0195 -0.0111 -0.0395 0.003 0.0133 0.0048 -0.0086 0.0447 0.0137 -0.0001 0.0016 -0.0093 0.0115 0.0072 -0.0052 -0.0233 -0.0161 0.0095 0.0105 0.0163 0.0193 0.0233 0.0011 -0.001 -0.0086 -0.029 -0.0348 -0.0115 -0.0351 -0.0245 -0.0205 -0.0227 -0.0141 -0.0162 -0.0098 0.0038 -0.0015 -0.0107 -0.0399 -0.02 0.0093 -0.0077 -0.0043 -0.0353 -0.0475 -0.0308 -0.0356 -0.0134 -0.0084 -0.0154 -0.0132 -0.0015 0.0092 0.0701 0.0752 0.0399 -0.0315 -0.0328 -0.027 -0.0514 -0.0125 -0.0118 -0.0471 -0.0215 -0.0002 0.0582 0.124 0.1276 0.129 0.0652 -0.0039 -0.0138 0.0099 -0.0291 -0.004 -0.0023 0.0012 0.0591 0.0678 0.0967 0.091 0.0373 0.0592 0.0794 -0.0196 -0.0511 -0.0225 0.0198 0.0148 0.0027 -0.0149 -0.0465 -0.0532 -0.0753 -0.1211 -0.0122 -0.0005 -0.0146 -0.018 -0.0261 0.0065 0.0066 0.0085 -0.0049 -0.0224 -0.0123 -0.0947 -0.0144 0.0032 0.0168 0.0398 -0.0034 -0.0309 -0.0329 0.0308 0.0543 -0.0516 -0.0621 -0.0756 -0.0095 0.0002 0.0018 -0.0247 -0.0241 -0.0436 -0.0418 -0.0247 0.0256 0.0244 -0.01 -0.0287 -0.0097 0.0055 0.0043 -0.0281 0.0015 -0.0162 -0.0215 -0.0273 -0.0323 -0.0179 -0.0177 -0.032 -0.0734 -0.0451 -0.0195 -0.0712 -0.0642 -0.0596 0.0075 0.0701 0.0027 -0.01 -0.0039 0.0086 0.0102 -0.0284 -0.0163 0.0199 0.017 -0.0175 -0.0278 0.0223 0.0183 0.0041 -0.0096 -0.0198 -0.0024 0.0065 0.027 0.0469 0.039 0.0323 0.0112 0.0187 -0.0049 0.0055 -0.0027 0.0052 -0.0007 -0.0027 0.0069 0.0056 0.0087 0.0028 0.0012 0.0311 0.0198 0.0462 0.0273 0.0003 -0.0024 0.0015 0.0062 -0.0069 -0.0162 -0.0448 -0.0345 -0.0263 -0.024 -0.0038 -0.027 0.0075 0.0039 -0.0018 -0.0113 0.0097 0.0141 -0.0024 -0.0151 -0.0326 -0.0197 -0.0178 0.0089 -0.0067 0.0283 0.0182 0.0077 -0.0028 -0.0033 0.0009 0.0194 -0.0163 0.0087 -0.0098 -0.0336 -0.0417 -0.0241 0.0006 0.029 -0.0005 -0.0051 0.0127 0.0587 0.0591 0.0063 -0.023 0.0066 -0.0025 -0.0326 -0.0267 -0.0157 0.0377 0.0006 -0.0121 -0.0004 0.0195 0.0532 -0.0196 -0.035 0.034 -0.0027 0.0383 -0.0421 0.002 -0.009 -0.0049 -0.0105 0.0032 0.0285 0.0307 -0.0197 0.0029 0.0159 0.0415 0.0446 -0.0402 -0.0248 0.0068 -0.0291 0.0106 -0.0011 -0.0163 0.0319 -0.0161 0.0096 0.0196 0.0116 -0.0142 0.0269 0.0146 0.0114 -0.0094 0.0155 0.016 0.0147 0.0195 -0.0264 0.0048 -0.0039 -0.0266 -0.0781 -0.0268 -0.0062 0.0016 -0.0245 0.0056 0.0012 -0.0348 0.0267 -0.0544 -0.0214 -0.044 -0.03 0.0177 -0.0121 0.0179 0.0418 0.0013 -0.0084 0.0063 -0.0153 0.0006 0.0048 -0.0288 0.032 0.0115 -0.0171 -0.034 0.0139 -0.0086 -0.0039 0.0012 -0.0172 -0.0208 -0.0373 -0.0386 0.0119 0.0176 0.0566 0.0102 -0.0344 0.0121 0.0035 0.0103 0.0104 0.0043 0.0259 0.0377 0.0418 0.0349 0.0404 0.0367 0.0228 -0.0266 -0.0167 0.0049 -0.0046 -0.0051 0.0004 -0.009 0.0014 0.0212 0.0006 -0.0014 0.0059 0.0084 0.0059 0.0157 0.0142 0.0262 0.0007 -0.0025 0.0011 -0.0019 0.007 0.0048 -0.0094 0.0064 -0.0051 0.0007 0.0031 -0.0023 -0.0012 0.0008 0.002 -0.003 -0.0058 -0.0011 -0.0005 -0.0067 -0.0051 0.0057 -0.0003 0.0016 0.0047 0.0017 -0.0042 -0.0026 -0.0083 -0.0046 -0.0063 -0.0081 -0.0019 0.006 -0.0117 0.0055 0.0014 -0.0035 -0.0021 -0.0046 0.0049 -0.0059 -0.0044 -0.0027 -0.0136 -0.0041 0.0033 -0.0022 -0.001 0.0001 -0.0002 -0.0022 -0.0042 -0.0017 0.0074 -0.0066 0.0061 0.0056 0.0015 0.0012 0.0149 0.0015 0.0053 -0.0023 0.0033 0.0017 -0.0019 0.0069 0.0034 0.0143 0.0064 -0.0032 -0.0021 0.0118 0.0041 -0.0021 -0.0022 0.0005 0.0005 -0.0012 0.0003 0.0029 0.0092 0.0005 -0.0039 -0.0033 -0.0013 -0.0022 0.0014 0.0082 0.0004 0.0029 0.0018 -0.0044 0.0021 0.0082 -0.003 -0.0042 -0.0007 0.0008 0.0032 -0.0028 -0.0048 0.0008 0.003 -0.0051 -0.006 -0.0035 0.011 0.0083 -0.0127 0.0032 0.0039 0.0063 0.0071 -0.009 0.001 -0.0012 -0.0007 -0.0077 -0.0061 0.0024 -0.0002 -0.0005 -0.0003 -0.0037 -0.0022 -0.0075 -0.0023 0.0025 0.004 -0.0013 -0.0074 -0.0008 0.0032 0.0036 -0.0073 0.0024 -0.0131 -0.0063 -0.0037 -0.0035 -0.0049 0.0008 0.0002 -0.0053 0.0004 -0.004 -0.0003 -0.0033 0.0023 0.0034 -0.0021 0.0097 0.0008 0.0 0.0021 0.0007 -0.0042 0.0014 0.0008 -0.0008 0.0039 -0.0063 0.0007 -0.0007 -0.0007 0.0039 0.0011 0.0026 0.0052 0.0053 -0.005 -0.0076 -0.0073 -0.008 0.0061 -0.0008 -0.0109 -0.0016 -0.0018 0.005 0.0123 0.0016 0.0154 -0.001 -0.018 -0.0187 -0.0015 0.0186 0.0057 -0.018 -0.0025 0.0069 0.009 -0.016 -0.0114 -0.0343 -0.0209 -0.0036 0.0231 0.0111 -0.0013 -0.0245 -0.033 0.0021 -0.0027 -0.0113 0.0005 0.0288 -0.001 -0.0122 0.0059 -0.0092 -0.0257 -0.0474 -0.0269 -0.0178 -0.0245 -0.034 -0.0159 0.0045 -0.0096 -0.0177 -0.0077 -0.004 -0.05 0.0062 0.024 0.0168 -0.0104 -0.0211 -0.0068 0.0054 0.0117 0.017 -0.0115 -0.0087 0.0143 0.0437 0.027 0.0118 0.016 0.0215 0.0419 0.024 -0.0013 -0.0352 0.0035 0.0167 0.015 -0.0117 0.0238 0.0442 0.0329 0.0582 0.0063 0.0122 0.0235 -0.0006 0.0035 0.0108 0.0009 0.0067 0.0282 -0.0174 -0.0101 0.0285 -0.0019 -0.0449 -0.0333 -0.0211 -0.0114 -0.0138 -0.0129 -0.0278 0.0031 0.0227 -0.0059 0.0026 0.0081 -0.0372 -0.0417 -0.0342 -0.0119 -0.0129 -0.0189 -0.0143 -0.0036 0.0048 0.0142 -0.0296 -0.0529 -0.0617 -0.0258 0.0223 0.0278 0.0211 0.0139 -0.0142 -0.0052 0.0148 0.0277 0.0652 0.0785 0.0084 0.0004 -0.0446 -0.0265 0.0302 -0.0057 0.0099 -0.0072 0.0154 0.0154 0.0176 0.027 0.0086 0.0128 -0.018 -0.015 0.0152 0.0018 0.0028 -0.0027 0.0058 0.0119 -0.0263 -0.0215 -0.0072 -0.0243 0.0061 -0.0019 0.0055 0.0027 -0.0075 -0.0004 -0.0061 -0.0101 0.0043 0.0135 -0.0061 -0.0195 0.0096 0.0033 -0.028 -0.0204 -0.029 0.0069 0.0024 0.0143 -0.003 0.0065 0.0061 0.0029 -0.032 0.0393 0.037 -0.026 -0.0356 -0.0161 -0.0068 0.008 0.0071 0.0136 -0.0068 0.0025 0.0313 0.0162 -0.0054 -0.0085 -0.048 -0.0121 0.0129 0.0287 0.0098 -0.0056 -0.0059 0.0156 -0.0021 0.0052 0.0022 -0.0041 -0.0226 -0.0459 -0.0122 0.0126 0.0468 0.0304 0.01 0.0012 0.0153 -0.0254 -0.0305 0.0056 -0.0016 0.0402 0.007 -0.0171 0.0195 0.0367 0.0057 0.0109 0.0158 -0.0033 -0.0146 0.0067 0.0271 -0.0268 0.0011 -0.0321 0.0184 0.029 0.0223 -0.017 0.02 0.0005 -0.0189 -0.005 0.0154 -0.0231 -0.0418 0.0137 -0.0044 0.0425 0.0128 -0.0131 -0.0136 -0.0082 0.0146 0.0101 -0.0324 -0.0223 -0.0223 -0.0447 -0.0135 -0.0015 0.0119 -0.0066 -0.0136 -0.0102 0.0061 -0.0039 -0.0086 -0.0192 -0.0043 -0.0201 -0.0162 -0.0114 0.0005 -0.0424 -0.0107 -0.016 -0.0008 0.0058 0.0001 -0.0283 0.0106 0.0071 0.0064 -0.0203 -0.0296 0.0167 -0.0558 -0.0463 -0.0513 -0.0161 0.0048 -0.0157 0.0306 0.011 -0.011 -0.0024 0.035 -0.0373 -0.055 -0.0381 -0.0468 -0.0062 0.0028 -0.0021 -0.0084 0.0072 0.0272 0.0153 -0.0108 0.0276 -0.0011 0.0133 0.0125 0.0113 0.0318 0.0117 -0.0002 0.004 0.0146 0.012 0.0196 0.0256 0.0131 -0.012 0.0367 0.0355 0.0208 0.0278 0.013 0.0092 -0.0025 -0.0089 0.0024 0.0168 0.0061 0.0222 -0.0055 0.0029 0.0289 0.0212 0.0146 -0.0094 0.0072 0.0102 0.0002 0.0179 0.001 -0.0122 0.0003 0.0094 0.0364 0.0691 0.0449 0.0318 -0.0036 -0.0175 0.0116 0.0229 0.0015 -0.0141 -0.0504 -0.0079 -0.0015 0.0 0.0085 0.0341 0.0198 0.0008 -0.0191 0.0203 0.0156 0.0194 0.0185 -0.0124 -0.0373 -0.0241 -0.0566 -0.014 0.0458 0.0197 -0.0169 0.0046 -0.0053 -0.002 -0.061 -0.0795 -0.0401 -0.0678 -0.0935 -0.0572 0.0129 0.0288 0.0286 -0.026 -0.0001 0.0273 0.0059 0.0009 -0.0154 -0.0109 0.0345 -0.0009 -0.0875 -0.0094 0.0455 0.0244 -0.0069 -0.0113 0.0068 0.0243 0.0468 0.0789 0.1203 0.0625 -0.0169 -0.0993 -0.086 0.0081 0.0179 0.0194 0.026 -0.0119 -0.0144 -0.0101 0.0449 0.0974 0.0459 0.0528 -0.0161 -0.0772 -0.014 0.006 0.0076 0.0069 0.0159 0.0122 -0.0061 0.0039 0.0704 0.079 0.0792 0.0043 0.0 -0.0175 -0.0456 0.0028 -0.0219 -0.0164 -0.0366 -0.0529 -0.0488 -0.0706 -0.0375 0.0105 0.0256 0.0127 0.0155 -0.0281 -0.0061 -0.0223 0.0021 -0.0018 -0.0362 -0.0731 -0.0396 -0.0701 -0.0496 -0.0157 0.0282 0.0337 0.0232 0.0219 0.0008 0.0091 0.0132 0.0067 -0.0004 0.005 -0.0079 0.0046 -0.0284 0.0192 0.0786 0.0717 0.0266 0.0027 0.005 0.0076 -0.0022 -0.0028 -0.0114 -0.0091 -0.0176 -0.0074 -0.0031 0.0337 0.0215 -0.0164 -0.0124 0.0146 0.0042 0.0202 0.0188 0.0081 0.018 -0.0232 -0.025 0.0119 0.0352 0.0317 0.0113 0.0093 0.0048 0.0246 0.0384 0.0303 0.0268 0.0132 0.005 -0.0102 0.0233 0.0262 0.0331 0.0048 -0.0032 -0.0144 -0.0164 -0.0313 -0.0151 -0.0298 0.0157 0.0108 -0.0181 -0.0291 -0.0228 0.0366 -0.0111 -0.0133 -0.0054 -0.0276 -0.0114 -0.0286 -0.0455 -0.0211 0.0148 -0.047 -0.0672 -0.0637 -0.0044 -0.0281 -0.0312 0.0101 0.0007 0.0067 -0.016 -0.0097 -0.0427 -0.001 -0.0328 0.01 -0.0034 0.0039 -0.0162 -0.0383 0.0078 0.0141 0.0191 0.0142 -0.006 -0.014 0.0136 -0.0016 0.0038 0.0184 0.0252 -0.0156 -0.0079 0.0243 -0.0022 0.0111 0.009 0.0274 0.0257 0.0389 0.0412 0.0827 0.0548 0.0463 -0.0204 -0.0322 0.0294 0.0125 0.0112 0.0346 0.0364 0.0168 0.0356 -0.0018 0.0192 0.0733 0.046 0.0048 -0.0164 -0.0149 -0.0022 -0.065 -0.0458 0.0117 -0.0105 0.0461 -0.004 0.0233 0.0153 0.0322 0.0171 -0.0193 -0.0039 -0.0129 -0.0567 -0.0941 -0.0641 -0.0725 -0.0215 -0.033 -0.0477 -0.0462 0.0075 0.0109 -0.0243 0.0159 0.0062 0.0107 -0.0142 -0.0167 -0.0226 -0.0151 0.0149 -0.0089 -0.0232 0.025 0.0014 -0.0053 0.0196 0.0377 0.044 0.025 -0.0002 -0.0322 -0.0067 0.0106 -0.0223 -0.0232 0.0212 -0.0088 -0.0189 -0.0083 0.0011 0.0296 0.0062 -0.0183 0.0093 0.0142 0.006 0.0104 -0.0304 0.0138 0.018 0.0031 0.0046 0.0037 0.0041 0.0065 0.0052 0.0 0.0039 -0.0039 -0.0021 0.0042 0.004 -0.0032 0.005 -0.0007 0.0051 0.0036 0.0004 -0.0028 0.0041 0.01 -0.0023 -0.004 -0.0042 0.0018 -0.0008 0.0007 -0.0008 -0.0027 -0.0019 -0.0055 -0.0187 0.0044 -0.0031 -0.009 -0.0003 0.004 -0.0075 0.0005 -0.0012 0.001 -0.0068 -0.0158 0.0063 0.0025 -0.0084 -0.0053 0.003 -0.0083 0.0073 -0.0038 -0.003 0.0007 0.0065 -0.0035 -0.0046 0.0066 -0.0002 -0.0001 -0.0181 0.0063 0.0016 -0.0069 -0.0042 0.0028 -0.0004 -0.001 0.0021 -0.0003 -0.0102 -0.0009 0.008 0.0002 -0.0014 -0.0075 -0.0086 -0.0061 0.0003 0.0027 0.0068 0.0044 0.0108 -0.0046 -0.0089 -0.004 0.0007 -0.0016 0.01 0.0025 0.0004 0.003 -0.0007 0.0016 -0.0044 -0.0045 -0.0015 0.015 0.0018 0.0041 -0.002 0.001 -0.0012 -0.0049 0.0004 0.0023 -0.0018 -0.0021 -0.0102 -0.0111 -0.0033 0.0017 0.0011 -0.001 -0.0001 -0.0055 0.0004 0.0034 0.0024 0.0003 0.0017 0.0021 -0.0109 0.0047 0.0065 -0.012 0.0088 0.0056 0.0003 -0.0062 -0.0016 -0.0018 -0.0015 -0.0016 -0.0123 0.0037 -0.0039 0.0045 0.0033 -0.0051 -0.0096 0.004 -0.0029 0.003 0.0016 -0.0015 0.003 0.0008 0.006 -0.0043 -0.0003 -0.0058 0.0008 -0.001 0.0027 -0.0005 0.0019 -0.0041 -0.0008 -0.0003 0.0004 0.0036 0.0038 -0.0015 -0.0022 0.0016 -0.003 0.0027 0.0039 -0.0035 0.0011 0.005 0.0027 0.0003 0.0196 -0.0003 -0.0103 0.0012 -0.0114 -0.0116 -0.0057 0.0023 0.0019 -0.0021 -0.0016 0.0034 -0.0228 0.0005 -0.0079 0.0046 -0.0182 -0.0299 -0.0159 0.0053 0.0038 0.0012 -0.0086 0.0006 -0.0293 -0.0118 -0.0038 0.005 0.05 0.0412 -0.0059 -0.0215 -0.0259 -0.0169 -0.0108 -0.0153 -0.0089 0.0209 0.0248 0.0231 -0.0024 0.0299 -0.0084 0.0121 0.0261 0.028 0.0255 0.0001 0.0027 -0.0115 0.0084 0.0072 -0.0294 -0.0117 -0.0245 -0.0012 0.022 -0.0126 -0.0244 0.0399 0.0328 0.0082 0.0184 0.0181 0.0034 0.0053 -0.019 0.0262 -0.0193 0.0064 -0.0051 -0.0045 0.002 -0.0003 0.0123 -0.0065 -0.0058 -0.0052 0.039 -0.0061 -0.0456 -0.0436 -0.0176 -0.0388 -0.0066 -0.0196 -0.0044 -0.0006 0.0108 0.0044 0.0279 0.0493 0.0481 -0.0148 -0.037 -0.0098 -0.0041 -0.0127 -0.0001 0.0049 -0.0135 -0.0164 -0.0219 -0.0082 0.0058 0.0356 0.0031 0.0002 0.0208 0.042 0.0303 0.0109 0.0011 0.001 0.0205 0.0262 0.0261 -0.0244 -0.0046 -0.024 -0.0267 -0.0026 0.0225 -0.0051 0.0097 0.0117 0.0019 0.013 0.0257 0.0275 0.0081 -0.0037 -0.0059 0.0009 -0.0169 -0.0511 0.0004 0.0122 -0.005 0.0012 0.0046 -0.0197 -0.0253 -0.0165 -0.0262 -0.004 -0.0249 0.0009 0.0216 0.0476 0.0129 0.0016 -0.0079 -0.0158 -0.0118 -0.0163 -0.027 -0.0062 -0.0053 -0.002 0.0166 0.0272 0.0349 0.024 0.0152 0.0051 -0.0161 0.0085 0.0066 -0.0084 0.0195 0.0053 0.0277 0.0142 -0.0107 0.0075 -0.0135 0.0087 -0.0124 0.0043 -0.0067 0.0042 -0.0158 0.0007 0.0126 0.0304 -0.0304 0.0211 0.0212 0.0134 0.0072 -0.0079 -0.0034 -0.0113 -0.0026 0.0103 -0.0549 -0.0476 -0.0072 0.0175 0.021 0.022 0.0145 -0.0059 -0.0141 -0.0168 0.0184 0.0172 -0.0137 -0.0827 -0.0641 0.0085 0.0604 0.0548 0.0374 0.0216 -0.0112 -0.0071 0.0127 0.0351 0.0406 -0.0381 -0.0591 -0.0577 0.0779 0.0141 -0.008 0.0474 0.0196 0.0005 -0.0003 -0.0042 0.0402 0.0206 -0.004 -0.0063 -0.001 0.0021 -0.0187 -0.0441 0.0185 0.0382 0.0111 -0.0048 0.0198 -0.0073 0.0386 0.02 -0.0028 0.008 0.0382 -0.0038 -0.0099 -0.0242 -0.0176 0.0158 0.0015 0.0018 -0.0282 -0.0023 -0.0308 -0.0041 0.0212 0.0318 -0.0129 -0.0191 0.0133 -0.0734 -0.0266 -0.0323 -0.0155 -0.0256 -0.0079 -0.0304 -0.0278 -0.0238 0.0276 0.0043 -0.012 -0.0495 -0.0392 -0.008 -0.0122 -0.004 0.0239 0.0229 -0.0055 -0.022 -0.0278 -0.0017 0.0099 -0.0057 -0.0292 -0.0025 0.0128 0.0226 -0.0061 0.0039 0.0234 0.0114 -0.0108 0.0122 -0.0208 -0.0063 -0.0498 0.0217 0.0343 -0.0057 0.0034 0.0023 -0.0137 0.012 0.0134 -0.0077 -0.0003 0.0253 0.0149 0.0143 -0.007 0.0003 0.0048 0.012 0.0075 -0.0108 -0.0233 0.0228 0.0185 0.0044 0.0269 0.0164 -0.0064 -0.0156 -0.0144 0.0061 0.0076 0.0007 0.0117 0.0129 -0.003 -0.0007 0.0052 0.0003 -0.0288 -0.0084 0.0084 -0.0077 0.0067 0.0022 -0.0084 0.0033 -0.0028 -0.0023 0.015 0.0076 -0.0139 -0.028 -0.0393 -0.0131 -0.0083 0.0054 0.0128 -0.0069 -0.033 -0.0207 0.0195 0.035 -0.0019 -0.0238 -0.0602 -0.0571 -0.021 -0.0332 0.0041 0.0134 -0.0125 -0.0084 -0.0417 -0.0398 0.026 0.081 -0.0048 -0.0896 -0.052 0.0198 0.0035 0.0126 -0.0056 -0.0021 0.0122 -0.0273 -0.0927 -0.0144 -0.0063 -0.0178 -0.0435 -0.0522 0.0419 0.0336 0.0191 0.0209 0.0047 -0.0028 -0.0254 0.0055 -0.0081 0.0011 -0.0128 -0.0169 0.0382 0.0862 0.0478 0.0176 0.0083 0.0287 0.0296 0.02 0.0254 0.0612 0.0263 -0.0336 0.0136 0.0111 0.0012 0.0125 -0.0159 0.0132 0.0055 0.0112 0.0365 -0.0067 -0.0058 0.0152 -0.0033 0.0171 0.0417 0.0555 0.0282 -0.0242 -0.0156 -0.0103 0.007 -0.0192 -0.0032 0.0298 0.065 -0.0001 -0.0521 0.0405 0.0356 0.0511 -0.0214 -0.0369 0.0182 0.0272 -0.0012 -0.0403 0.004 0.0177 -0.0268 -0.0281 0.023 0.031 0.0153 0.0249 -0.0149 -0.0119 -0.0113 -0.0096 0.0084 -0.0081 -0.0046 0.0494 0.0564 0.0772 0.0048 -0.0111 -0.0186 -0.0016 0.0336 0.028 0.0121 -0.0229 -0.0238 -0.027 -0.0244 0.0094 -0.0012 -0.0152 -0.0226 -0.0347 -0.0204 0.0035 0.0046 -0.004 -0.0182 -0.033 -0.0056 0.0033 0.0148 0.0152 -0.0064 -0.0148 -0.0212 -0.0185 -0.0041 -0.0038 0.0023 0.0121 0.0238 0.0435 0.0056 0.003 0.0046 -0.0068 0.0066 0.0084 0.0051 0.0019 -0.0036 -0.0109 0.0152 -0.0101 0.0236 0.0 -0.0087 -0.0231 -0.0192 -0.0159 0.0045 0.0038 0.0066 0.0102 -0.0226 -0.0146 0.0413 0.0352 -0.0112 0.028 0.0084 -0.0104 0.0023 -0.0139 0.0151 0.0062 0.0038 -0.03 -0.0433 -0.0244 0.0149 0.0019 0.0302 -0.0095 -0.0168 -0.0034 -0.0058 0.0145 -0.016 -0.0156 -0.0202 -0.0432 -0.0208 -0.0391 -0.0177 0.0547 -0.0222 -0.0071 0.0174 0.0266 0.0187 -0.0013 -0.0014 0.0066 -0.0137 0.0277 0.0042 0.053 0.0292 -0.0354 -0.0304 0.0351 0.0355 0.0172 -0.0019 0.0119 0.0003 0.0186 -0.0173 -0.0427 -0.0181 -0.0187 -0.0208 -0.0522 0.0166 -0.0067 0.0258 0.019 0.0388 0.0352 0.0122 0.0062 -0.0514 -0.0388 -0.0763 -0.0278 -0.0426 -0.0368 -0.0203 0.0083 -0.0103 0.0246 0.0133 0.0237 -0.0174 0.0225 0.0289 -0.0139 0.0441 -0.0112 0.0111 -0.0354 -0.0074 -0.0131 0.0051 -0.0202 0.0068 -0.0508 -0.0184 -0.0284 -0.0074 0.068 0.0024 -0.0291 0.0059 0.0228 -0.0015 -0.0026 -0.0208 -0.0072 -0.0472 -0.0166 -0.0085 0.0175 0.0748 0.0021 0.0037 -0.025 0.006 0.0142 0.032 0.0038 -0.0145 -0.0002 0.0158 -0.0222 -0.0051 0.0367 0.006 -0.0008 0.0055 0.0183 -0.0008 0.0123 0.0058 0.0175 -0.0176 0.0273 -0.0049 -0.005 -0.0112 0.0126 0.0093 -0.0192 0.0224 -0.0029 -0.0013 -0.0008 -0.0022 0.0087 0.0007 -0.0008 0.0026 0.004 0.0002 -0.0082 0.0013 0.0039 -0.0052 -0.005 -0.002 -0.0005 0.0022 -0.0038 0.0042 0.0054 -0.0012 0.0053 -0.0005 -0.0014 0.0013 0.0028 -0.0072 0.0027 -0.002 0.0 0.0024 -0.0005 0.0097 0.0095 -0.0004 -0.0071 0.0026 -0.0029 -0.0002 0.0033 -0.0065 0.0027 -0.0058 -0.0044 -0.0104 -0.0027 -0.0009 -0.0045 -0.0005 -0.0008 -0.0015 -0.0092 -0.003 0.0052 -0.0064 -0.0013 -0.0038 -0.0011 0.0022 -0.002 0.0083 0.0 -0.0058 0.0069 -0.0054 -0.0032 0.0087 -0.0007 0.0047 -0.0056 -0.0026 0.0053 0.0089 -0.0046 -0.0094 0.0052 0.006 -0.0032 -0.0043 -0.006 -0.0024 -0.0076 -0.0036 -0.0078 0.0004 0.0061 -0.0065 0.0001 0.0078 -0.0058 -0.0023 -0.0014 -0.0003 0.0037 -0.0014 0.0081 0.0048 -0.0017 0.0035 0.0113 0.0029 0.0014 0.0013 0.0015 -0.0006 0.0033 -0.0108 -0.0003 -0.0088 0.0032 -0.0037 -0.001 0.0042 0.0122 -0.0018 -0.0006 0.0079 0.0008 0.0013 0.001 0.0028 0.0023 0.0021 -0.0016 -0.0158 0.0012 -0.0049 0.0034 -0.0006 0.0022 0.0017 -0.0018 0.0107 -0.0063 -0.0085 0.0093 0.0007 -0.0039 -0.0002 0.0042 0.0037 -0.0066 -0.0039 0.0002 -0.0015 -0.0021 -0.0036 0.0097 -0.0003 -0.0016 -0.0123 -0.0018 0.0125 0.0005 -0.0001 0.0022 0.0001 -0.0028 0.0022 -0.0019 -0.0029 0.0051 0.0041 -0.0005 -0.0097 -0.0005 0.0051 -0.0006 -0.0126 0.0053 0.0066 0.0037 -0.0158 0.0067 -0.0119 -0.0178 -0.0304 0.0051 0.0 0.016 0.0087 -0.0103 -0.0208 0.0051 -0.0074 0.0001 0.0099 -0.0034 -0.0007 0.0258 0.0147 0.0054 0.0068 -0.0068 -0.0094 -0.0077 -0.0093 -0.0139 0.0329 -0.0179 -0.0067 0.0078 0.0069 0.0144 -0.0116 -0.0168 -0.0012 -0.0043 0.0148 0.0039 -0.0206 -0.0441 -0.046 0.0208 0.0659 0.064 0.0211 -0.0065 0.0042 0.0047 0.0118 0.0452 0.0176 0.0313 -0.0102 0.029 -0.0095 0.0261 0.0234 0.0047 -0.0068 -0.0174 0.0001 0.0006 0.0002 -0.0079 -0.0023 0.0261 0.045 0.0629 0.0428 0.0502 0.051 0.0163 -0.0121 0.0065 0.0059 0.0137 -0.0094 -0.0326 -0.0022 0.0173 0.0088 -0.0033 0.0179 0.0259 0.0232 -0.0268 -0.016 0.0038 0.0098 -0.0138 -0.026 -0.0001 0.0057 0.0166 -0.0274 0.0028 -0.0357 -0.0001 -0.0226 -0.0069 -0.0072 0.0048 -0.0148 -0.0219 -0.0501 -0.0137 0.0249 -0.0225 -0.0264 -0.0045 0.0087 0.0024 0.0192 -0.0243 -0.0233 -0.0183 -0.0574 -0.0483 -0.0128 -0.0417 -0.0285 -0.0195 0.0069 -0.0023 -0.0076 -0.0176 -0.0068 0.02 -0.0033 0.0066 0.0409 -0.0202 0.0032 0.033 -0.0139 -0.033 -0.008 0.0241 0.0119 0.0019 0.009 0.029 0.0353 0.0069 -0.0073 0.0083 0.0339 0.0178 -0.0093 -0.004 -0.0049 0.0015 -0.0078 -0.0021 0.0134 0.007 0.0162 -0.0186 -0.0232 0.0125 0.0044 -0.0247 -0.0083 0.0071 0.0115 0.0195 -0.0072 -0.0013 0.001 -0.0009 -0.0159 -0.0063 0.0023 0.0326 0.0146 0.0499 0.0217 -0.0009 0.0125 -0.0197 -0.026 -0.0019 0.0008 0.0036 0.01 0.0162 0.041 0.0007 0.0319 0.0127 0.0106 0.0134 -0.0079 -0.0167 -0.0139 0.0405 0.0062 0.0531 0.0396 0.0021 -0.0023 -0.0042 0.0018 -0.0143 0.0147 0.0055 0.0298 0.0086 0.0498 0.0226 0.0217 0.0421 -0.0391 -0.0077 -0.0471 0.0091 -0.0205 -0.0063 -0.018 0.0322 0.0268 -0.003 -0.0301 -0.0421 -0.0251 0.0104 0.0016 -0.042 -0.0178 -0.0144 -0.017 -0.0111 0.0177 0.0441 0.0207 0.011 -0.0731 0.0271 0.0296 0.0093 -0.0267 -0.0196 -0.009 -0.0231 -0.0168 0.0152 0.0421 -0.0162 0.0068 -0.0182 0.0164 0.0081 -0.0292 -0.0359 -0.0214 -0.0118 -0.0112 -0.0245 -0.0385 0.03 0.0355 -0.0028 -0.0223 -0.0046 -0.0374 -0.0212 -0.0435 -0.0295 0.0129 0.0089 0.0058 -0.0254 0.0461 0.063 0.0145 -0.0222 -0.0177 -0.0538 -0.0478 0.0076 0.0152 0.006 0.0003 -0.0127 -0.0133 0.0387 0.052 -0.0382 -0.0322 -0.0186 -0.0117 -0.0319 0.0521 0.0143 0.0107 0.0092 -0.0249 0.0111 0.0071 0.0059 0.009 -0.0042 -0.0115 -0.0247 -0.0322 0.0199 0.0093 0.0196 0.0108 -0.0259 -0.0029 -0.0216 0.0123 0.0032 0.0003 -0.0056 0.0143 0.0045 0.0167 0.0085 0.0033 -0.0094 -0.0131 -0.0081 -0.0136 -0.0131 0.0072 -0.0036 0.0279 0.0212 0.0026 -0.0087 -0.0088 -0.0105 0.0076 0.013 0.0271 0.0208 0.0381 0.0275 0.0221 0.0023 0.0098 0.0085 0.0139 -0.0009 0.0023 0.0214 0.0075 -0.0141 -0.0051 0.0145 0.0269 0.0043 -0.0138 0.0136 0.011 0.028 0.0009 0.0143 0.0189 -0.0142 -0.0511 -0.1022 -0.0707 -0.0008 0.0116 -0.0629 -0.0708 -0.0328 0.0149 -0.0293 -0.017 0.0198 0.0102 -0.0728 -0.1235 -0.0967 -0.0301 -0.0164 -0.079 -0.0823 -0.056 -0.0191 -0.0021 -0.0051 0.0302 0.0754 0.0326 -0.0241 -0.0622 -0.0258 -0.061 -0.083 0.0141 0.0177 0.0059 0.0143 0.0048 0.0067 0.0113 0.0071 0.0178 0.0195 0.0693 0.002 -0.0022 -0.0109 0.026 0.0352 -0.0196 0.0064 0.0115 -0.0016 0.0117 -0.0172 -0.0148 0.0161 -0.0149 -0.0132 0.0457 0.0623 0.0409 0.0047 -0.0014 0.0194 -0.0145 -0.0703 -0.0702 -0.0464 -0.0679 -0.0293 0.0001 0.0304 0.0421 0.0627 0.0172 0.0022 0.0096 0.0344 0.0021 -0.0074 -0.0602 -0.0235 0.0053 -0.0099 0.0181 0.0565 0.0501 0.0054 0.018 0.0002 0.027 0.0204 0.0141 -0.0148 -0.0417 0.0065 0.051 0.0392 0.0175 0.0115 0.0121 0.0054 0.0038 0.0213 -0.0115 0.0071 -0.017 -0.0406 -0.0004 0.0619 0.0992 0.0198 -0.0029 0.0075 -0.0058 0.0021 -0.0224 -0.0254 -0.009 0.0138 0.0034 0.02 0.0512 0.0306 -0.0387 -0.0308 -0.0335 -0.0385 -0.002 -0.0023 -0.0066 0.0132 0.0139 0.0012 0.0239 0.0147 -0.0172 -0.0059 -0.0213 -0.0413 -0.0313 0.0008 0.0019 -0.0054 -0.0074 -0.0011 -0.0066 -0.0088 0.0029 -0.0226 -0.008 0.0077 0.0098 0.012 -0.0025 -0.0092 -0.0283 -0.0205 -0.048 -0.0118 -0.0284 -0.0065 -0.0369 0.0095 0.0032 0.015 0.027 -0.0053 0.0035 0.0385 0.0335 0.0213 0.0324 0.0158 -0.0313 -0.0147 -0.0104 -0.0199 -0.0084 0.0061 0.0053 0.0055 0.0454 0.0461 0.009 0.0532 0.0371 -0.0345 -0.0219 -0.0081 -0.0137 0.0053 0.0309 0.008 0.0147 -0.0033 0.0478 -0.0109 0.0347 0.0253 0.0566 0.0291 -0.0161 -0.0029 -0.0426 -0.0046 -0.0147 -0.0133 -0.048 -0.0335 -0.0608 -0.0022 -0.0108 0.0114 0.0006 0.0005 0.0141 -0.0146 0.0068 -0.009 -0.0132 -0.0106 -0.0458 -0.0226 -0.0286 0.0472 0.0329 0.0418 -0.0162 0.0023 -0.0619 -0.0099 0.015 -0.0204 -0.0213 0.0082 0.0029 -0.0064 0.0022 0.0008 0.01 -0.0017 0.0174 -0.0208 -0.0021 0.0044 0.0241 0.0156 0.0412 -0.0032 -0.022 0.0008 0.004 -0.0163 -0.0096 0.0047 0.0135 0.0054 -0.0024 -0.013 -0.0187 -0.0021 0.013 0.0073 0.017 -0.0036 0.0419 0.0312 0.0434 -0.0045 0.0322 0.011 -0.0091 -0.0172 0.0003 0.0007 0.0086 -0.0089 -0.0235 0.0055 -0.0084 0.0019 -0.0055 0.0089 0.0119 0.0093 -0.0119 0.0092 0.0313 0.0242 -0.0176 -0.0254 -0.0004 -0.0053 -0.0148 -0.008 0.0154 -0.0047 -0.0033 -0.0108 -0.0017 -0.0077 0.011 0.0037 -0.0186 -0.0276 -0.0113 -0.0067 -0.0346 -0.0078 -0.0001 -0.0003 -0.0103 -0.0003 0.0019 -0.0001 -0.007 -0.0025 0.0015 -0.0033 0.0023 -0.0005 -0.0009 0.0017 0.004 -0.0021 0.0004 0.0027 -0.0024 0.0003 -0.0023 0.0063 -0.0032 -0.001 -0.0002 -0.0002 -0.0047 -0.0012 -0.0125 0.0012 -0.0015 0.0015 -0.0111 -0.0035 -0.0003 0.0019 0.0051 0.0019 0.0034 0.0023 0.0026 0.0042 -0.0024 0.0017 0.0107 -0.0039 0.0053 -0.0002 -0.001 -0.0009 -0.0031 0.0018 -0.0059 0.0022 -0.0031 0.0 0.0085 -0.0057 0.0015 0.0058 -0.0086 -0.004 -0.0003 -0.0027 -0.0019 -0.0038 0.0099 -0.0074 0.0031 0.0053 -0.0012 0.011 0.0067 0.0038 0.0074 0.0072 -0.0019 0.0037 -0.0023 -0.0003 0.009 0.0052 -0.002 0.0061 0.0112 0.0017 0.007 -0.0038 0.0093 -0.0051 -0.0045 -0.0004 -0.0073 0.0011 -0.0004 0.0014 0.0089 0.0018 0.0096 0.0097 -0.0069 -0.0063 -0.0008 -0.0007 0.0005 0.002 -0.0066 0.0001 -0.0032 -0.0027 0.0116 0.0002 0.0042 0.0135 -0.007 0.0049 0.0069 0.0037 0.0015 0.0003 0.001 0.0021 -0.0112 -0.0054 -0.0016 -0.0077 0.003 -0.0041 -0.002 -0.0033 0.0042 0.0017 -0.0057 0.006 -0.0002 -0.0096 0.0024 0.0105 0.0056 -0.0026 0.0097 0.0034 -0.0033 0.0019 0.0002 0.0007 0.0016 -0.0079 -0.0037 -0.0038 0.0002 0.003 -0.0044 0.0038 0.0011 0.0011 0.0013 0.0004 0.002 0.0025 -0.0025 -0.0016 -0.0005 0.0025 -0.0073 0.0009 -0.0018 -0.0042 0.001 -0.0004 0.0049 0.0014 0.02 0.0251 0.0251 0.0263 -0.003 -0.0001 -0.0299 -0.0201 -0.0168 -0.0067 0.0119 0.0087 0.0261 0.0013 0.0206 0.0041 0.0199 -0.0145 -0.0222 -0.0367 -0.0212 0.005 -0.0018 0.0018 -0.0101 -0.0016 -0.0019 -0.006 0.0223 0.0011 0.0034 0.0262 0.0042 0.0194 0.0078 -0.0004 -0.015 -0.0157 -0.036 -0.0751 -0.0489 -0.0074 0.0111 0.0427 0.0464 -0.0084 -0.0001 -0.008 -0.0026 0.0183 0.0226 -0.0062 -0.0347 -0.0504 -0.0297 -0.0215 -0.0037 0.0373 0.0006 0.0263 0.0002 -0.0102 0.0227 -0.0048 -0.0153 -0.0375 -0.0813 -0.0741 -0.0426 -0.0305 0.0026 -0.0037 -0.0159 -0.0078 -0.0082 -0.0182 -0.0008 -0.0147 -0.0331 -0.0544 -0.0459 -0.0537 -0.0402 -0.0167 -0.0222 -0.0341 0.023 0.0257 0.0209 0.015 -0.0129 0.0465 0.0562 0.0494 0.0279 -0.0391 -0.0676 -0.0261 -0.0115 -0.0213 -0.0093 0.006 -0.0175 -0.0024 0.0412 0.0588 0.0394 0.0009 -0.0152 0.0036 0.0445 0.0269 0.0057 0.0136 -0.0097 -0.0197 -0.0407 -0.06 0.0038 0.0666 0.0901 0.0483 0.0303 0.0352 0.0247 0.0292 0.007 -0.0022 0.0223 0.0358 0.0251 -0.0181 0.0062 0.0301 0.0114 0.0258 0.0329 0.011 -0.0181 0.0006 -0.0082 0.0003 0.0211 0.0382 0.0132 -0.0112 0.0037 0.0298 0.0185 -0.0006 -0.0162 -0.0134 -0.0101 -0.0192 -0.0119 0.0109 0.018 -0.0043 -0.0063 0.0055 0.0035 0.0091 -0.0242 -0.0352 -0.0196 -0.0075 -0.004 -0.023 0.0139 0.0029 -0.0076 0.0195 -0.0437 -0.0159 -0.0074 -0.0046 -0.0095 -0.0125 -0.0058 -0.0018 -0.0242 -0.011 0.0051 0.0174 0.0134 -0.016 -0.0205 -0.0252 0.0064 -0.0048 0.0014 0.0144 -0.0033 -0.0018 -0.0368 0.0052 0.017 -0.0071 -0.0202 -0.0275 -0.0227 -0.0321 0.0027 -0.0118 0.0223 0.0053 -0.021 -0.0251 0.0484 0.0296 0.041 -0.0298 -0.0461 -0.0564 0.0133 -0.0033 0.0078 -0.0133 0.0239 -0.0172 0.0084 0.0044 0.0429 0.0767 0.0218 -0.0336 0.0012 -0.0019 -0.0073 -0.0253 0.0024 0.007 0.0256 0.0031 -0.0151 0.0296 0.039 0.0481 0.0302 0.024 0.0075 0.003 -0.0036 0.0096 0.0217 -0.0292 -0.0107 -0.0271 0.013 0.0643 0.0405 0.0003 0.0398 -0.0068 0.0091 -0.0108 0.0409 -0.0031 -0.0212 -0.0456 -0.0041 0.0255 0.0397 0.0292 0.0026 0.0211 0.0147 0.0245 0.0322 0.0193 0.0032 -0.0243 -0.0005 -0.0367 0.0537 0.0226 0.0195 0.0045 0.0589 0.005 0.0146 0.0151 -0.011 0.0004 0.0125 0.0139 0.0281 0.0093 -0.0563 -0.0338 0.0031 0.0326 0.0067 0.0129 0.0017 0.0377 0.008 0.0042 0.0062 -0.0021 -0.0078 -0.044 -0.0456 0.0198 0.0284 -0.0387 -0.0065 0.0076 0.0142 0.0011 -0.0148 -0.0255 0.0051 -0.0108 -0.0356 -0.0124 0.028 0.017 -0.0145 -0.0068 0.0213 -0.0149 -0.0153 -0.0175 0.0101 -0.0108 -0.009 -0.033 -0.0164 -0.0061 0.007 -0.0266 -0.0084 -0.0053 -0.0306 -0.0074 -0.0281 -0.0134 -0.0226 0.0022 -0.0162 -0.0171 -0.038 -0.0331 -0.0132 -0.0273 -0.0277 0.0008 -0.0145 0.0027 -0.0124 0.0091 0.0029 0.0011 -0.0186 -0.0379 -0.0125 -0.0008 0.0051 -0.0007 -0.0059 0.014 0.0211 0.0503 0.0149 -0.0087 -0.0026 0.0388 0.0235 -0.0097 0.0206 0.0546 0.0145 -0.0014 -0.0107 -0.0007 -0.0055 0.0023 0.0234 -0.0039 0.0181 0.0753 0.01 0.0376 0.0356 0.0411 0.0045 0.017 -0.0049 -0.0044 -0.0123 0.0372 0.0222 0.0255 0.0235 0.0333 0.0381 0.0111 -0.0069 0.0266 0.0155 0.0014 0.0016 -0.0342 -0.0006 -0.0295 0.0271 0.0042 0.0279 -0.0344 -0.0139 -0.0271 -0.0211 -0.0024 -0.0006 0.0274 0.0007 -0.0421 -0.0374 -0.0068 -0.0309 -0.0651 -0.0446 -0.0012 -0.006 -0.0256 0.0068 0.0029 -0.0296 -0.017 -0.0516 -0.0528 -0.0931 -0.0708 -0.0474 0.0226 -0.0147 -0.0073 -0.0062 -0.0088 -0.0068 -0.0189 -0.0379 -0.0214 -0.0054 -0.041 -0.0505 -0.0116 0.0191 0.0243 0.0091 0.0157 -0.0103 -0.003 -0.0283 -0.0065 -0.0168 0.0039 -0.0049 -0.0168 0.0015 -0.0389 -0.0254 0.0009 0.0162 0.0189 0.032 0.0159 0.0272 0.0329 -0.0064 -0.0215 0.0323 0.0392 -0.0204 -0.0304 -0.0154 0.01 -0.0156 -0.0085 0.0283 0.0752 0.0271 -0.0079 0.0014 0.0118 0.0108 0.0242 0.0062 -0.0233 0.0031 -0.0099 -0.0124 0.0109 0.0247 -0.0029 -0.0031 0.004 -0.0198 -0.0068 -0.005 -0.0082 0.0033 0.0049 -0.0132 -0.0094 0.0257 -0.0033 0.0114 0.0083 0.0152 0.0125 -0.0133 0.0274 -0.0083 0.0103 0.0149 0.0044 -0.0078 0.0109 0.0199 0.0358 0.0189 0.0159 0.0198 -0.0256 0.0174 -0.0278 0.0065 0.0118 0.0059 0.0226 0.0069 -0.0379 -0.0205 0.0077 0.0178 0.0061 -0.0038 0.0225 0.0068 0.0174 0.0075 0.0054 0.0115 -0.0501 -0.0404 -0.0225 -0.0017 0.0036 -0.0013 -0.0582 -0.0237 -0.0111 0.0348 0.0033 0.0213 0.0117 -0.0172 -0.0014 -0.0222 -0.0108 0.0213 -0.0089 -0.0051 -0.0121 -0.0023 0.0115 -0.0002 -0.0039 0.0236 -0.0064 0.0245 0.0042 0.0098 0.0136 -0.0361 -0.0379 -0.0437 -0.0045 0.0267 -0.0124 -0.0256 -0.0152 -0.0237 -0.0116 0.0076 0.0123 0.0441 -0.0475 -0.0343 -0.0313 -0.0241 0.0057 -0.0106 -0.0064 -0.0089 -0.0059 -0.0189 -0.0151 0.0051 -0.0122 -0.0608 -0.0211 -0.0082 -0.0045 0.024 0.0035 -0.0119 0.0175 -0.0066 -0.006 -0.0012 0.0162 0.049 0.0185 0.0543 -0.0009 0.0187 0.0363 0.0031 0.0013 0.0346 0.0435 -0.0248 -0.0161 0.024 0.0616 0.0524 0.0353 0.0113 -0.003 -0.0063 0.003 -0.0004 -0.0039 0.0022 0.0007 -0.0056 0.0197 0.0273 0.0372 0.0312 0.0072 -0.0014 -0.0039 -0.0092 0.0127 0.0308 0.015 -0.0192 -0.0117 -0.021 -0.0351 -0.0105 0.0041 0.0006 -0.03 -0.0125 -0.0108 -0.008 0.0023 -0.0009 -0.0149 -0.0104 -0.0203 -0.0412 0.0062 0.0072 0.0088 -0.0115 -0.0164 -0.0279 0.0023 -0.0006 -0.0005 0.0021 -0.0039 0.003 -0.0026 0.002 0.0044 -0.0058 0.0039 0.0045 -0.0023 -0.0011 0.0015 -0.0005 0.0046 -0.0114 -0.003 0.0007 -0.0044 -0.0023 0.0019 0.0005 -0.0016 -0.0032 -0.0024 -0.0025 0.0003 0.0078 0.0036 0.0057 0.002 -0.0023 0.0109 -0.0086 0.0048 -0.0006 -0.0001 -0.0017 0.0027 0.0064 -0.0053 0.0011 0.0065 0.0086 0.0015 0.008 -0.0089 -0.0032 -0.0023 0.0005 -0.0139 0.0048 0.0072 -0.0059 -0.0072 0.0215 0.0012 -0.0064 -0.0103 0.0053 0.0066 -0.0029 0.0008 0.0006 -0.0053 -0.0082 0.0077 -0.0039 -0.0008 -0.0114 0.0028 0.0009 -0.0034 -0.001 -0.001 -0.0027 -0.0003 0.0028 -0.003 -0.0091 0.0256 -0.0065 0.0102 0.001 -0.0017 0.001 -0.0051 0.0012 -0.0026 0.0029 0.0002 0.0045 0.002 0.0025 -0.0032 -0.008 -0.0071 0.0042 -0.0003 0.0059 -0.001 -0.0007 0.0038 0.0042 -0.0027 -0.0018 0.0126 0.0002 0.0046 -0.0001 -0.0052 0.0025 -0.0074 0.0112 -0.0005 -0.001 -0.0004 -0.0084 0.0073 -0.0009 -0.0144 -0.0054 -0.0076 0.0025 0.0048 0.0067 -0.0036 -0.0022 -0.0029 0.0016 -0.0021 -0.0073 0.0102 0.0033 -0.0027 0.0037 0.0011 0.0024 -0.0033 0.0017 0.0013 0.003 -0.0016 0.0011 0.0002 0.0074 0.0074 0.0005 0.0016 0.003 -0.0031 -0.0034 -0.0019 -0.0005 -0.0001 -0.0007 -0.0038 0.0021 -0.0044 -0.0006 0.0041 -0.0064 0.0025 0.0029 -0.0038 0.0002 -0.0018 -0.0152 -0.0118 -0.0188 -0.0425 -0.0465 -0.0251 -0.0078 0.0051 0.0066 0.0168 0.0085 -0.022 -0.0162 -0.0059 -0.0104 -0.048 -0.0137 -0.0134 -0.0014 -0.002 0.0144 -0.0019 -0.0009 -0.0268 -0.0383 -0.0041 -0.014 -0.0229 -0.0116 0.0132 0.0244 0.015 -0.0448 -0.0356 -0.0267 -0.0517 -0.0463 -0.0275 -0.014 0.002 0.0114 0.0211 0.0296 0.0267 0.0241 -0.0076 -0.012 -0.0341 -0.0215 0.0243 0.0092 0.0177 -0.0134 -0.0093 0.0134 0.0163 -0.0116 -0.0039 0.0448 0.0048 -0.0367 0.0181 0.0458 0.0301 0.0485 -0.0156 0.0169 0.0399 0.0016 0.0296 0.0476 0.0339 0.0029 -0.0091 0.0167 0.0338 0.0336 0.0167 0.0316 0.0187 0.0147 0.0525 0.03 0.0485 0.0348 -0.0078 -0.0066 -0.0085 -0.0057 0.0086 0.014 -0.0064 0.0029 -0.0057 0.0198 0.0519 0.0288 0.0315 0.019 -0.0168 0.0149 -0.0093 -0.0264 -0.02 -0.0068 0.0079 0.0089 -0.0072 -0.0181 -0.0159 0.0448 0.0359 0.0226 0.0109 -0.0035 -0.0032 0.0001 -0.0109 -0.0084 -0.0152 0.0448 0.0144 -0.0118 0.0025 -0.0668 -0.0765 -0.0402 -0.0098 0.0103 0.0054 -0.0122 -0.0225 -0.0184 0.0168 0.0088 -0.0241 -0.0482 -0.0544 -0.0616 -0.0343 -0.0099 0.0 0.0065 0.0107 0.0216 0.0212 0.0093 -0.0057 -0.0176 -0.0124 0.0013 0.0073 0.0163 0.0113 0.0114 -0.0041 0.0097 0.0174 0.0056 0.0074 -0.0134 -0.0014 0.0134 0.0045 0.0136 0.0061 -0.0009 0.0028 0.0108 0.0015 0.0012 0.0045 -0.0119 0.0246 -0.0004 0.008 -0.0174 0.0143 0.0241 -0.0108 -0.0026 -0.0111 0.0233 -0.0059 -0.0098 0.0157 -0.0175 0.0021 0.0088 -0.0308 0.0087 0.0224 0.0033 -0.0261 -0.0192 0.0025 -0.0082 -0.005 -0.0079 -0.0326 -0.0007 -0.0236 -0.0273 0.0283 0.0161 0.0151 -0.0088 0.0154 0.0033 0.0127 -0.0101 -0.0575 -0.0341 -0.0281 -0.0008 -0.0009 0.0245 0.0244 0.0412 0.0238 0.006 0.0008 -0.0307 0.0316 -0.0168 -0.0096 0.0047 0.018 0.0304 0.0123 0.0421 0.0143 0.0312 0.0148 -0.0233 0.0211 0.0568 0.0445 0.0275 -0.0402 0.005 0.0004 0.0109 0.0475 0.0065 -0.0283 0.0098 -0.0019 0.0419 -0.0255 -0.0135 0.0178 -0.0025 -0.0024 0.0263 0.0158 -0.0013 -0.0073 -0.0072 -0.0054 -0.0059 0.0 -0.04 0.0018 0.0082 -0.0264 -0.0205 0.0034 0.0212 0.01 0.0566 0.0143 -0.0215 0.0213 -0.0207 -0.0348 0.008 0.0179 -0.0231 -0.0219 0.0121 0.0134 0.052 0.0269 -0.0116 -0.0205 0.0061 -0.0229 -0.0303 -0.0221 0.0092 0.0482 0.0376 0.0579 0.0186 -0.0006 0.0103 -0.0213 -0.017 -0.0054 -0.0033 -0.0234 0.0169 0.043 0.0536 0.0502 -0.001 -0.0053 0.0006 0.0008 0.0231 0.0192 0.0062 -0.0296 0.0032 0.0227 0.0031 -0.0052 -0.0029 0.0226 -0.0235 0.0206 0.0129 0.0118 -0.0096 -0.0055 -0.0077 0.0009 0.0197 0.0158 -0.0104 -0.0096 -0.0055 0.0071 -0.0053 -0.0013 -0.0092 -0.0192 -0.005 -0.0158 -0.0224 -0.0144 -0.0342 -0.0076 -0.0185 -0.0007 0.0084 0.0431 0.0266 -0.0068 0.0075 -0.0179 -0.0129 -0.0056 -0.0072 0.0129 0.0066 -0.0203 0.0024 0.0309 0.0369 0.0353 -0.0024 -0.0117 -0.0117 -0.0191 0.0125 0.0072 0.011 0.0036 0.0019 0.0116 -0.0215 -0.0131 -0.001 0.0109 -0.0126 0.0036 0.007 0.0222 0.0158 0.0207 -0.0073 0.0044 0.0084 0.0009 0.016 0.0083 -0.0403 -0.0345 0.0021 0.033 -0.0058 0.0254 0.0176 0.0083 0.0208 -0.0095 0.0397 0.0 -0.04 -0.0531 -0.0563 0.0261 -0.0052 0.0279 0.0291 0.0329 0.0524 0.0182 -0.0478 -0.0012 0.005 -0.017 0.0503 0.0131 -0.008 0.014 0.0043 0.0328 0.0234 0.0179 -0.0236 -0.0397 -0.0375 0.0226 0.0457 0.0081 0.0016 0.0239 0.0183 -0.0045 0.0133 0.0441 0.0457 -0.0481 -0.0341 -0.049 -0.0746 -0.0221 0.0107 0.0249 -0.0135 -0.0023 -0.0402 0.008 0.0105 0.0143 -0.0098 -0.033 -0.0378 -0.0495 -0.0249 0.0336 0.0284 0.037 -0.005 0.0044 0.0017 -0.0459 -0.0482 -0.0753 -0.0357 -0.0226 -0.0203 -0.0151 -0.0197 -0.0188 0.0085 0.0023 -0.0057 -0.0292 -0.0696 -0.0261 -0.0061 -0.0349 0.0297 0.0129 0.0108 -0.0032 -0.0054 0.0047 -0.0052 -0.0288 -0.0107 0.0277 0.0425 0.0365 0.0357 0.0314 0.0209 0.029 0.0297 0.0125 0.0035 0.0203 -0.0027 0.0121 0.0003 0.024 0.0284 0.0344 0.012 0.0282 0.0193 0.0023 -0.0045 -0.0008 0.0097 -0.0004 0.0025 0.0101 0.0065 0.034 0.0338 0.0219 0.0224 0.007 0.0173 0.0041 -0.0237 0.0103 -0.0099 0.0123 0.0 -0.0035 0.0102 0.0335 0.003 0.0058 0.0141 0.0121 -0.0029 -0.0055 -0.0144 -0.0281 0.0197 0.0017 -0.0329 0.0379 0.0418 0.0178 0.0174 0.0337 0.0248 0.0026 0.0023 0.008 -0.007 -0.0179 -0.033 -0.0625 -0.0333 0.0366 -0.0067 -0.0085 0.014 -0.022 -0.0202 -0.0123 0.0123 -0.0098 -0.0092 -0.0056 -0.0439 -0.0867 0.0303 -0.0015 0.0225 0.0133 0.0063 -0.032 0.0093 0.0044 0.0127 0.0257 -0.0108 -0.0406 -0.0824 -0.0029 -0.007 -0.012 0.0245 0.0074 -0.0437 0.0028 0.022 0.0727 0.037 -0.0197 -0.0423 -0.1201 -0.0689 -0.0088 -0.0368 0.0171 0.027 -0.0191 -0.0098 0.0301 0.0498 0.0898 0.0341 -0.0017 -0.0963 -0.0267 0.0043 0.0051 0.0357 0.003 -0.0271 -0.0073 -0.0214 0.034 0.0115 0.0267 -0.035 -0.0271 -0.0103 0.0113 0.0194 -0.0083 0.0281 -0.0045 -0.0144 0.0028 0.0373 0.0273 0.0227 -0.0024 0.0353 0.0697 0.0509 0.0245 0.0043 -0.0122 -0.0163 -0.0102 -0.0005 0.0081 -0.0133 -0.0036 -0.0094 0.0156 0.0091 0.0381 0.0412 -0.0152 0.0248 -0.0013 -0.0236 -0.0091 -0.0067 -0.0272 -0.024 -0.0296 0.0019 0.0087 0.0041 -0.002 -0.0038 -0.0094 -0.0168 -0.0002 0.0013 0.0082 -0.0074 -0.0033 -0.0186 0.0049 0.0016 -0.0071 0.0082 -0.0068 0.0056 0.005 -0.0028 -0.0007 0.0064 -0.0022 0.0003 -0.0018 -0.0008 -0.0001 -0.0009 -0.0062 0.0064 -0.0045 -0.0023 -0.004 0.001 0.0011 -0.0108 0.0024 -0.0015 -0.0022 0.0043 0.0064 -0.0042 0.0056 0.0045 0.0004 0.0063 -0.0051 0.0156 -0.0051 -0.0014 0.0002 0.0082 -0.0032 -0.0073 0.0018 0.0037 -0.0057 0.0033 -0.0032 0.0005 0.0004 0.0051 -0.0058 -0.0108 -0.0056 0.0068 -0.0038 -0.0016 -0.005 0.0034 -0.0026 0.0076 -0.0012 0.0046 0.0111 0.0158 0.0034 0.0066 -0.0037 0.0091 -0.0153 0.005 0.0065 -0.0021 -0.0017 -0.0073 -0.0077 -0.0042 -0.0024 0.0033 0.0079 -0.0054 0.0065 0.004 0.0029 0.0031 0.0009 -0.0101 0.0035 -0.0083 0.0 0.0077 0.0009 -0.005 -0.0097 -0.0149 0.0038 0.0159 0.0032 0.0005 -0.0073 0.0029 0.0021 -0.0035 -0.0033 -0.0092 -0.0078 -0.0013 0.0012 -0.0027 -0.0086 0.0043 0.0001 0.001 0.0007 -0.0028 0.0014 0.0102 -0.0065 0.0054 -0.0059 -0.0156 0.0162 0.0088 0.0044 -0.0054 0.0003 0.0024 -0.0088 0.0023 0.0075 -0.0008 -0.0066 0.0159 0.0055 -0.0056 -0.0081 0.0011 0.0041 -0.001 0.0021 -0.0044 -0.0007 0.0061 0.0035 0.0021 -0.0001 0.0003 -0.007 0.0026 -0.0029 -0.0031 -0.0014 -0.0032 -0.0054 -0.0014 0.0025 0.0025 0.0018 -0.0067 -0.0048 0.0039 0.0071 -0.0023 0.0042 -0.0005 -0.0009 -0.0086 -0.001 0.0025 -0.0065 0.0065 0.0035 0.0048 0.0001 -0.0027 0.0035 -0.003 -0.003 0.0012 0.0038 -0.0124 -0.0017 -0.0078 -0.0166 -0.0174 -0.0092 -0.0145 -0.0208 -0.0104 -0.0065 -0.0065 -0.0061 0.0002 -0.0316 -0.0279 -0.0298 -0.0298 -0.0596 -0.0395 -0.0247 -0.0069 -0.0155 -0.0147 0.0239 0.0168 -0.0197 -0.0017 0.0339 0.0186 -0.0076 -0.0124 -0.0198 -0.0108 0.0223 0.0258 -0.0005 -0.0113 -0.0103 -0.0188 0.0239 0.007 -0.0163 -0.0013 0.0414 0.0482 0.0032 0.0128 0.0423 -0.0074 -0.0095 -0.0124 -0.01 -0.0301 -0.071 -0.0356 0.0214 0.0281 0.0291 0.0115 0.0098 0.0089 0.0202 -0.0043 -0.0059 -0.0132 -0.0196 0.0184 0.0338 0.0154 0.0411 0.0673 0.0619 0.0199 -0.006 -0.0142 0.0113 0.0343 0.0127 0.0166 -0.0022 -0.0328 -0.0028 0.0141 0.0202 0.014 0.0217 0.0275 -0.005 0.0025 0.0097 -0.0005 0.0023 -0.011 0.0032 0.0084 -0.0009 0.0217 0.0189 0.0262 0.0341 0.0087 0.019 0.0096 0.0131 0.0047 0.0316 0.0249 0.034 0.0382 0.0224 0.0102 0.0177 -0.0012 -0.0038 0.0394 -0.0149 -0.0311 0.0031 -0.0275 -0.0003 0.026 0.0566 0.0209 0.0014 -0.0327 -0.0302 -0.03 -0.0054 -0.0055 -0.0074 -0.0284 -0.0338 0.0244 0.0418 0.0744 0.0555 0.0128 -0.0017 0.0031 -0.024 -0.0155 -0.0227 -0.0315 -0.0248 -0.0311 0.0073 0.0215 0.0091 0.0036 -0.0038 -0.0029 0.0138 0.0063 -0.0053 -0.0102 0.0046 -0.0038 -0.0456 -0.0192 0.0069 -0.0064 -0.0143 -0.0209 -0.0067 -0.0071 0.0011 0.0144 0.0055 0.0113 0.0228 -0.0035 -0.01 0.0001 0.0058 0.0039 -0.0076 0.0203 -0.0039 0.0008 0.0045 0.0032 0.0055 -0.0039 0.0232 -0.0089 -0.0042 0.0302 0.0313 -0.0112 0.0008 0.0029 0.0001 0.0006 -0.0181 -0.002 0.0345 0.0348 -0.0076 -0.0229 -0.007 0.0038 0.0062 -0.0248 0.0144 -0.007 -0.0088 -0.0247 0.0062 0.0376 0.0527 0.0085 -0.0152 -0.0242 -0.0128 -0.0102 -0.0174 0.0059 -0.0234 -0.0124 -0.007 0.0241 0.0606 0.0053 -0.0144 -0.041 -0.0062 -0.028 -0.0412 -0.0172 -0.0216 -0.0325 0.001 0.0338 0.0255 0.0081 -0.0208 0.0104 -0.0205 0.0006 -0.0147 0.0156 0.0186 -0.0175 0.0176 0.009 -0.0233 -0.0033 -0.0288 -0.058 -0.0236 0.031 -0.0101 -0.0222 0.0388 0.0689 0.0291 0.0144 -0.0083 0.0145 -0.0453 0.0431 -0.0093 0.0371 0.0635 -0.0134 -0.0588 0.0105 0.0253 -0.0107 -0.0122 -0.0041 0.0233 -0.0476 0.0078 0.0196 0.0686 0.0352 -0.0519 -0.0211 0.0249 0.0082 -0.0083 0.0005 0.0165 -0.0269 0.0093 -0.0049 0.0471 -0.0004 -0.0297 -0.0497 -0.0246 -0.0121 0.0371 0.0201 -0.0063 0.0038 -0.0093 0.0045 0.0273 0.009 -0.008 -0.0345 -0.0322 -0.0486 0.0059 -0.0017 0.0066 -0.0245 0.0015 -0.0024 0.0034 -0.0091 0.0131 -0.0262 0.0073 -0.0191 0.0102 0.0204 0.0064 -0.0187 -0.0204 0.0005 -0.0068 -0.0042 0.0119 0.0082 -0.0087 0.0091 0.0068 0.0103 0.0072 0.023 -0.0006 0.0077 -0.0086 -0.0175 -0.0246 -0.0147 -0.023 -0.0094 -0.0131 -0.0156 -0.0123 0.0005 -0.0141 -0.0108 0.0068 0.0081 0.0013 -0.0237 -0.0077 -0.0259 0.0091 0.0236 0.0317 0.0204 0.0347 0.011 -0.0001 -0.0086 0.0304 0.0448 0.0305 -0.0315 -0.0365 -0.0354 0.0232 0.0501 0.015 0.0229 -0.0109 0.0 -0.017 -0.0175 -0.0014 0.0038 -0.0083 -0.0654 -0.0697 0.0085 0.0035 -0.0404 0.0214 -0.0093 -0.0059 0.0077 -0.0198 0.001 0.0286 0.0168 -0.0036 -0.0384 -0.05 0.0091 -0.0138 0.0001 -0.0106 -0.0195 0.001 0.0197 0.0277 0.0323 0.0331 0.0258 -0.0036 -0.0449 -0.0206 -0.0158 -0.0329 0.0004 0.0095 0.0093 0.0128 0.0466 0.0561 0.0803 0.0304 0.0046 -0.0066 -0.063 -0.0603 -0.0081 0.0212 0.0483 0.0104 0.0148 0.0008 0.0213 0.0237 -0.0323 -0.0953 -0.0784 -0.0121 0.0003 -0.0033 0.0365 0.0612 0.0162 -0.0033 -0.0228 -0.0297 -0.0064 -0.0352 -0.0364 -0.0191 0.0234 0.0446 0.0222 0.0173 0.0268 0.01 -0.0404 -0.0453 -0.0465 -0.0143 -0.0209 0.0366 0.0597 0.0395 0.0564 0.0154 0.0484 0.0182 -0.0034 -0.0283 -0.033 0.0089 -0.0225 -0.0253 0.0061 0.0493 0.0247 0.0106 0.0285 0.0549 0.0038 -0.0169 0.0085 0.0183 0.0214 0.0031 0.0301 0.0018 -0.0484 -0.03 -0.0343 -0.0281 -0.0137 0.025 -0.0132 0.0114 0.0118 0.0063 0.0261 0.0263 -0.0016 -0.007 -0.0264 -0.016 -0.003 0.0159 -0.0095 -0.0115 -0.0028 0.0016 0.0006 0.021 -0.0078 -0.0196 -0.0185 -0.0135 -0.0156 0.0101 0.0061 0.02 0.0329 0.0079 -0.0046 -0.0036 -0.0002 -0.0004 -0.0251 -0.0358 0.0003 -0.0156 -0.0099 0.0124 -0.0116 0.0273 0.0044 -0.0172 0.0012 0.0006 -0.0224 -0.0234 -0.0413 -0.0318 -0.029 0.0226 0.0183 0.0068 0.0228 0.0089 -0.0138 -0.0024 -0.0159 0.0307 0.0089 -0.0253 -0.0112 -0.017 -0.0032 -0.0043 -0.0053 0.0045 0.0153 0.0124 0.0111 0.0097 0.1004 0.0423 0.0036 -0.0249 -0.0247 0.0123 -0.0066 -0.0157 0.0102 -0.0155 -0.0152 -0.0055 0.037 0.1032 0.0384 0.0227 -0.0237 -0.0151 0.0021 -0.0064 0.0013 -0.0105 0.0115 -0.0148 -0.0208 0.0059 0.0319 0.0226 0.0273 -0.0107 0.0286 0.0167 0.0239 0.024 -0.0083 0.0028 -0.0134 -0.0339 0.0338 0.0165 -0.0125 0.004 -0.0557 -0.0129 -0.0307 -0.0036 0.0105 -0.0027 -0.0094 -0.0018 0.0189 0.0555 0.0442 0.0317 0.0022 -0.0422 -0.0365 0.0069 0.0402 0.0078 0.0248 -0.0122 -0.0174 -0.0163 0.0536 0.0207 0.0276 0.0087 -0.0531 -0.0484 -0.0342 0.0006 0.0049 0.0124 0.0001 -0.005 -0.0265 0.0029 -0.0027 0.0038 0.0059 -0.0368 -0.0345 -0.0258 -0.005 -0.0075 0.0018 0.0002 -0.0041 -0.0312 -0.0173 -0.021 0.0215 0.0183 0.0076 0.0025 0.0031 0.0043 0.0059 0.0044 0.0023 0.0051 -0.0254 -0.0071 -0.0252 -0.0224 -0.0138 -0.0079 -0.0083 0.0078 0.0122 0.008 -0.0108 -0.0006 -0.0003 0.0 -0.0009 -0.0035 0.003 -0.0111 0.0036 -0.0101 0.0069 0.0029 -0.0019 0.0022 0.0029 0.0047 -0.0018 0.0061 -0.0024 0.0037 -0.0039 -0.0002 -0.0112 -0.0001 0.0017 -0.0003 -0.0009 0.0038 0.0005 0.0041 0.004 -0.0057 0.0093 0.0063 0.0062 0.0069 -0.0054 -0.0009 -0.0008 -0.002 0.0061 -0.0013 0.0027 0.0011 -0.0042 0.0039 0.014 0.0013 -0.0061 -0.0026 0.0141 0.0001 -0.0043 -0.0014 -0.0006 -0.0047 -0.0021 -0.0002 0.0087 0.0001 0.0023 0.0016 0.0052 0.005 -0.0044 0.0031 0.003 0.0032 -0.0008 0.0059 0.0031 -0.0015 -0.0049 0.0045 0.0002 -0.0051 -0.0018 0.0023 0.0028 -0.0078 -0.002 -0.0015 0.0025 -0.0015 0.0048 0.005 0.0043 -0.003 -0.0028 0.0007 0.0034 -0.0044 -0.0054 0.0103 0.0073 -0.0031 -0.015 -0.0002 -0.0028 -0.0073 -0.0141 -0.0034 0.0061 -0.0058 -0.0002 -0.0085 -0.0041 0.0109 0.0088 -0.0105 -0.0029 0.0083 0.0011 -0.0067 0.0045 0.0083 -0.0037 -0.0024 0.0014 -0.0031 0.009 0.0089 -0.0068 -0.0015 0.0061 -0.0037 0.0012 -0.0028 0.0014 0.0078 -0.0015 -0.0073 0.0022 -0.0014 0.0029 -0.0053 0.0017 -0.0042 -0.005 0.0023 -0.0047 -0.0014 0.0008 -0.0035 0.0015 0.0035 0.0014 0.0021 0.0046 0.0014 0.0017 -0.0037 -0.0069 -0.0005 0.0039 -0.0008 -0.0012 -0.002 -0.0002 0.0035 -0.0037 0.0006 0.0027 0.0018 0.0043 -0.0012 -0.0018 0.0008 0.0056 -0.0013 0.0085 -0.0081 -0.0143 0.002 -0.0121 -0.0184 -0.03 0.0002 0.0006 0.0323 0.0354 -0.0023 0.0076 -0.0086 0.0049 -0.0029 0.005 -0.0349 -0.0044 -0.0074 -0.0133 0.0305 0.0169 0.0114 0.0012 0.0106 0.002 0.0099 0.0395 0.0459 0.0256 0.0258 0.0393 -0.0281 -0.0658 -0.061 -0.0269 0.0048 0.0034 -0.016 -0.0288 -0.002 0.0284 0.0262 0.0286 -0.0233 -0.0245 -0.0677 -0.0725 -0.0579 -0.0317 0.005 0.0009 0.022 0.0187 0.0409 0.0442 0.0308 -0.0024 0.013 -0.0108 -0.0449 -0.0474 -0.0267 -0.0159 -0.0075 0.0014 -0.0049 0.0242 0.0055 0.0225 0.0232 0.0186 0.0073 -0.0016 -0.0028 -0.0267 0.002 -0.0024 -0.0123 -0.0198 0.0154 0.0047 -0.0046 -0.0085 0.0085 0.0382 0.0596 -0.0025 0.009 -0.0054 -0.0146 -0.0077 -0.0049 -0.0269 -0.0159 -0.0176 0.0123 -0.0057 -0.0035 0.0231 0.0194 0.0001 0.0148 0.0364 0.0509 0.0057 0.009 0.0049 0.0159 -0.0182 -0.0189 0.0201 0.0525 0.0387 -0.0134 -0.003 -0.0035 0.024 0.0321 -0.015 0.0156 0.0001 -0.0011 -0.0029 -0.0044 0.0258 0.0121 -0.0083 0.0 -0.0302 -0.0093 -0.0207 -0.0285 -0.0367 -0.0074 0.0037 0.0001 0.0175 0.0285 0.0034 0.0177 0.0113 -0.0069 0.0012 0.0088 0.0128 -0.0043 -0.0493 -0.0602 -0.0491 -0.0511 -0.0414 -0.0115 -0.0009 0.0047 -0.0228 -0.0201 0.0056 0.0178 0.0231 -0.0016 -0.0016 -0.006 -0.0105 -0.0217 -0.0199 0.0067 0.0099 -0.0001 -0.0086 -0.0233 -0.0179 0.0177 0.0058 0.0281 0.0116 0.0179 0.0248 0.0336 0.0106 0.0083 0.0177 -0.0009 -0.0105 0.0 -0.0005 -0.0101 0.0189 0.0092 0.0164 -0.0011 0.0332 0.0176 -0.0032 0.0139 -0.0132 0.0146 0.0329 -0.0134 0.0258 -0.0285 -0.0238 -0.0266 -0.0021 -0.0125 0.0186 -0.0434 0.001 0.0052 0.0257 0.0481 0.0303 -0.0077 -0.0418 -0.0649 -0.0323 0.009 -0.0042 -0.0292 -0.0085 -0.0016 -0.0109 0.0065 0.0254 0.0027 -0.0538 -0.0402 0.0063 -0.0198 0.008 -0.0163 -0.0447 0.0026 0.0105 -0.0322 0.0036 0.0456 0.0205 -0.0372 -0.0008 -0.0335 -0.0063 0.0049 0.0227 0.0073 -0.0038 0.016 -0.0373 0.0035 0.0358 -0.0013 0.0051 -0.0082 -0.0381 -0.0303 0.0464 0.0362 0.0237 0.0213 -0.002 -0.0118 0.0236 -0.0104 -0.0508 -0.0399 -0.0216 0.0076 0.0452 0.0323 0.0048 -0.0108 -0.003 0.0012 -0.0141 -0.0129 -0.0187 -0.0538 -0.0026 -0.0061 0.0358 0.0581 0.0205 0.0218 0.0128 -0.0295 -0.0081 0.0048 -0.002 -0.0097 -0.0809 0.0074 0.0166 -0.014 -0.0177 0.0401 -0.0119 -0.0046 -0.0335 0.0101 0.0065 -0.0137 -0.0193 -0.0176 0.0134 0.0176 0.0019 -0.0029 -0.0029 -0.0113 -0.0338 -0.0247 0.0115 0.0061 0.0051 -0.0337 -0.0026 -0.0033 0.0223 0.0133 0.0038 -0.0029 -0.0024 -0.0101 -0.0214 0.0035 0.0133 -0.0201 -0.0163 0.0094 0.0325 0.0241 0.0174 -0.0017 -0.006 -0.0076 0.0061 0.0033 0.0105 0.0292 0.0224 -0.0014 -0.0128 0.0075 0.0026 0.0118 0.011 -0.0093 0.0006 -0.0186 -0.0101 0.0058 0.0159 -0.0148 -0.0173 -0.0028 0.0055 0.0225 0.0234 0.03 0.0098 -0.0115 -0.0214 -0.0265 -0.0068 -0.0101 -0.0637 -0.0427 -0.0351 -0.0169 0.0057 0.0527 0.06 0.0442 0.0286 -0.0072 -0.0064 -0.0046 -0.0033 -0.0285 -0.066 -0.0824 -0.0368 0.0153 -0.0008 0.0038 0.0457 0.0387 0.0199 -0.0044 -0.0323 -0.0337 -0.017 -0.0197 -0.0238 0.007 0.0151 -0.0277 -0.0325 0.0193 0.0073 0.0103 -0.0049 -0.0156 -0.0447 0.0085 0.0036 0.0568 0.0589 0.0407 0.0127 -0.0071 -0.0029 -0.0133 0.0038 -0.0141 0.0144 0.0322 0.0369 0.0689 0.1009 0.0884 0.0464 0.0273 0.0216 -0.0065 -0.0344 0.0183 0.0154 0.0032 0.0122 0.0005 0.0225 0.0548 0.0928 0.0209 0.0182 0.0062 0.0003 0.0311 0.0145 0.0151 -0.0112 -0.0127 -0.0442 -0.0317 0.0607 0.0369 0.0165 -0.0708 -0.0932 -0.0581 -0.045 -0.034 -0.0113 0.01 0.0202 -0.0301 -0.0206 0.0202 0.0187 0.0055 -0.0397 -0.0303 -0.0344 -0.0318 -0.015 0.0272 0.0013 -0.0055 0.005 -0.0178 -0.0196 -0.004 -0.003 -0.0189 0.0351 -0.0241 -0.0147 -0.0067 -0.0074 -0.0006 0.0033 -0.0231 -0.0586 -0.0511 -0.0003 -0.0047 -0.0172 0.0171 0.0429 0.0008 -0.0154 -0.0092 0.0036 0.0098 -0.0033 -0.0203 0.003 -0.0308 -0.0164 -0.0134 -0.0049 0.0465 0.0354 0.0094 0.0096 0.0012 0.0043 -0.006 0.0135 -0.002 -0.0165 -0.0122 -0.0324 0.0039 -0.0178 0.0015 -0.0022 -0.0072 0.0141 0.0082 0.0223 0.0194 -0.0016 -0.0183 0.0079 -0.0245 -0.0033 -0.01 -0.0092 0.0025 -0.0025 0.0034 -0.0134 0.0112 0.0157 0.0126 0.0032 0.0428 -0.0009 0.033 -0.0065 -0.0037 -0.0053 -0.0112 0.0012 -0.0179 0.0337 0.0072 0.0007 0.0142 0.0607 0.0102 0.0052 0.0073 -0.0063 -0.0126 -0.0107 -0.0022 -0.0141 -0.0263 -0.026 -0.0398 -0.0231 -0.0019 0.0246 0.077 0.0052 -0.0045 -0.007 -0.0371 0.0073 0.0068 0.0168 -0.021 -0.041 -0.0236 -0.0118 0.0247 0.0495 0.0766 0.0644 0.0232 -0.009 -0.0032 0.0172 0.0112 -0.0306 0.0105 0.003 0.0073 -0.0014 0.0342 0.0434 0.0283 0.0296 0.0026 0.0244 -0.0032 -0.0385 -0.0314 0.0373 0.0174 0.0387 -0.0056 -0.0309 -0.0003 0.0313 0.0074 0.0037 0.0196 0.0144 -0.0052 -0.0171 -0.0051 0.0083 0.006 -0.0544 -0.0516 -0.0552 -0.0138 -0.0062 -0.0092 0.0157 0.0058 -0.0003 -0.0235 -0.011 0.0024 -0.0118 -0.0544 -0.0279 -0.0487 -0.0235 0.0197 -0.0091 0.0099 -0.0112 -0.0204 0.0136 0.0167 -0.017 -0.0115 -0.0038 -0.0278 -0.0198 0.0144 0.008 0.0074 -0.0092 -0.0189 -0.0209 -0.0012 0.003 0.0034 0.0115 -0.0046 0.008 -0.0015 -0.0148 0.0096 0.0043 -0.0062 -0.0113 -0.0096 -0.0108 0.0016 -0.0052 -0.0127 0.0131 0.0106 0.0157 0.0107 -0.0074 -0.0039 0.0014 -0.0039 -0.002 -0.0005 -0.0064 -0.0022 0.0046 -0.0005 -0.0035 0.0055 0.0044 -0.0014 -0.0044 0.0006 -0.0025 -0.0053 -0.0026 0.0023 0.0003 -0.0043 -0.0032 0.0014 -0.0118 -0.0049 0.0001 0.0011 0.0045 0.0011 -0.0086 0.0091 0.0006 0.0068 0.0034 0.0004 -0.0014 0.0007 0.0069 -0.0051 0.0029 -0.0015 0.0018 -0.0065 -0.0034 -0.0092 0.0008 -0.0089 0.0028 0.0016 -0.0031 0.0087 -0.0015 0.0008 0.0 0.0031 -0.0028 -0.0032 -0.0056 0.0062 0.0056 -0.0038 0.0058 -0.0047 -0.0048 0.0022 -0.0031 0.0049 -0.0006 0.0023 0.0074 0.007 0.0009 0.007 -0.0115 0.0047 -0.0055 -0.0003 0.002 -0.0004 -0.0012 0.0051 -0.0039 -0.0005 -0.007 -0.0047 -0.0106 0.0036 -0.0111 -0.004 0.0026 -0.0004 0.0003 -0.0002 -0.0028 -0.0031 -0.0023 -0.0068 0.0077 0.003 0.0061 0.0022 -0.0071 -0.0009 -0.0008 0.0022 -0.0021 0.0009 -0.0043 -0.0019 -0.0085 -0.0011 -0.0141 0.0059 0.006 -0.0065 -0.0087 -0.0004 0.0008 -0.0018 -0.0023 0.0047 0.0012 -0.0035 -0.0009 -0.0068 -0.0077 -0.0064 0.0034 0.0006 0.0014 0.0004 0.0049 -0.0002 0.003 -0.0035 -0.0015 0.0012 -0.0002 0.0046 0.0013 0.0086 0.0063 -0.0048 0.0029 0.0033 -0.0009 0.0023 0.0023 -0.001 -0.0016 0.0022 0.0036 0.0002 0.0035 -0.0019 0.0004 -0.0011 -0.0034 0.0023 0.0038 -0.0014 0.0005 0.0013 -0.0013 0.0036 0.0071 -0.0024 0.0 0.0 -0.0008 0.006 -0.0021 0.0008 -0.0114 -0.0209 -0.0123 -0.0076 0.0041 0.012 0.0003 0.0115 -0.0026 -0.0025 0.0178 0.0084 -0.017 -0.0064 -0.0148 -0.0292 -0.0371 -0.0145 0.0209 -0.0315 -0.0277 -0.0111 -0.0012 0.0038 -0.0039 -0.0228 -0.0278 0.0239 -0.0122 -0.0502 -0.0443 -0.0413 -0.0147 -0.0184 0.0012 0.0047 0.0039 -0.0227 -0.0134 0.0347 0.0121 0.0239 0.0242 0.0 0.0025 0.0432 0.0291 0.0105 0.015 -0.0094 -0.0277 -0.0078 0.0335 0.0259 0.0162 0.0228 -0.0386 -0.0294 0.0009 0.0074 -0.017 -0.0012 0.0212 0.0454 0.0129 0.0421 0.0306 -0.0282 -0.0395 0.0137 0.0175 0.0003 0.0039 0.0021 0.011 0.0019 -0.0099 0.0065 0.0008 -0.0225 -0.0065 0.053 0.0668 0.0105 0.0353 0.0116 -0.039 -0.0264 0.0002 -0.0396 -0.0283 -0.0012 -0.0015 0.019 0.0313 -0.0055 -0.003 0.0039 -0.003 -0.0099 0.0001 -0.0075 -0.0155 -0.032 -0.0035 0.0207 0.0486 0.03 0.0322 0.004 -0.013 -0.0008 0.0062 0.0048 -0.0121 0.0156 -0.0158 -0.0506 -0.0341 -0.0085 0.0325 0.038 0.0485 0.0152 0.0346 0.0442 0.0295 0.0054 -0.0038 -0.0247 -0.0537 -0.0686 -0.0175 0.0201 0.0248 -0.0013 0.0012 0.041 0.0382 0.0185 0.0003 0.0165 0.014 0.05 -0.0003 0.012 -0.0092 -0.0266 -0.0214 -0.0312 -0.0219 -0.0291 -0.0023 -0.006 0.0039 0.0129 0.0355 0.0354 -0.0096 -0.0366 -0.0186 -0.0159 -0.0399 -0.0102 -0.0062 -0.0134 -0.0019 -0.0163 0.0221 0.0071 0.017 0.0139 -0.0062 0.0068 0.0093 0.0025 0.0145 0.0064 -0.011 -0.0076 -0.0084 0.0051 0.0099 -0.0018 0.0038 0.0091 0.0045 0.0259 0.015 -0.0008 0.0047 0.0006 -0.0008 -0.0064 0.0014 -0.013 -0.0331 0.0137 0.0018 0.0273 0.005 0.0341 0.0044 -0.0097 -0.0029 -0.0135 -0.0402 -0.0096 -0.0554 -0.0147 0.0143 -0.0099 0.0475 0.0211 -0.0295 -0.0157 -0.0116 0.0048 -0.0026 -0.0327 -0.0392 -0.0613 -0.0196 0.0403 0.0207 0.0066 -0.0088 -0.04 -0.0113 0.0115 -0.0026 -0.0086 -0.018 0.0113 0.0052 0.0233 0.0141 0.0561 0.0022 -0.0376 -0.0142 -0.0225 -0.0028 -0.0055 -0.0201 0.0141 0.054 0.0856 0.033 -0.0008 -0.0496 0.0015 -0.0251 -0.0415 -0.0262 -0.0216 0.006 -0.0043 0.0326 0.0572 0.0509 0.0484 0.0064 -0.0861 -0.0378 -0.0429 -0.0076 0.0271 -0.0017 0.0249 0.0001 0.024 0.0558 0.0705 0.0053 0.0104 -0.0144 0.0137 -0.006 0.0155 -0.0162 -0.0061 0.0079 -0.0157 -0.0021 -0.0015 0.0474 0.0306 -0.0379 -0.0056 0.0098 -0.0156 0.014 0.0178 -0.002 -0.0218 -0.0144 -0.0047 0.0029 -0.0065 -0.0234 -0.0283 0.0025 -0.0513 0.009 -0.0033 0.0062 -0.008 0.0094 -0.0096 0.0076 -0.0098 -0.0057 -0.046 -0.0403 -0.0047 -0.0101 0.0289 0.0035 0.0051 -0.0036 -0.0063 0.0016 -0.0011 -0.0164 0.004 -0.0227 0.0011 -0.0091 0.0139 0.0106 0.012 -0.0325 -0.003 -0.0012 0.0027 -0.0107 -0.0108 -0.0198 0.0085 -0.0111 0.003 0.0051 0.0062 0.0351 0.0112 0.0186 0.0034 0.0147 -0.0076 -0.0107 -0.0162 -0.0085 -0.0054 0.0139 -0.0248 -0.0111 0.0161 0.012 0.0189 0.0116 -0.0007 0.0172 0.0282 -0.0088 0.0128 0.0147 -0.0219 -0.0606 -0.0404 0.0028 -0.0061 0.0097 0.0287 -0.0033 0.0274 -0.0306 0.0284 -0.0521 -0.0424 -0.0769 -0.0768 -0.0095 -0.0345 -0.0092 -0.0148 0.0089 -0.0046 0.0005 -0.0115 0.0016 -0.0998 -0.126 -0.0589 -0.0233 0.0 -0.0268 -0.0224 -0.0348 -0.0238 -0.0235 -0.0518 -0.0367 -0.0288 -0.1141 -0.1363 -0.0572 0.0129 0.0143 0.0162 0.0072 -0.0237 -0.0194 -0.0236 -0.0476 -0.0082 0.0027 -0.0182 -0.064 -0.0485 0.0035 0.0437 0.0358 0.0689 0.009 0.0115 -0.0203 -0.0284 -0.0346 0.0276 -0.0007 0.0384 0.0759 0.0254 0.0067 -0.0246 0.0285 0.0111 -0.0043 0.0 0.0146 0.0248 0.0083 0.0152 0.0294 0.051 -0.0028 -0.0378 -0.0026 -0.046 -0.0468 -0.0118 -0.0136 0.0222 0.032 0.033 0.0224 -0.0168 0.0416 0.0166 -0.0355 -0.0134 -0.0303 -0.0534 -0.0209 0.0111 0.0211 0.0204 0.0584 0.0667 0.0414 0.019 0.0291 0.0025 -0.0161 -0.0354 0.0078 -0.0188 -0.018 -0.0177 0.0179 0.0362 0.0106 0.0456 0.0236 0.0075 0.0272 0.0272 0.0277 0.0037 0.0055 -0.0109 -0.0115 0.0037 0.0059 0.0272 0.0161 0.0002 0.0053 -0.0083 0.0307 0.011 -0.007 -0.0113 -0.0032 -0.0054 0.0303 0.0141 0.0229 0.0244 0.0177 0.0029 -0.0037 -0.0122 -0.0178 -0.0025 0.0055 0.0134 -0.0073 0.0177 0.0209 0.0256 0.0181 0.0103 0.005 0.0058 -0.0155 -0.016 -0.0055 -0.0001 -0.006 0.0069 -0.0021 0.0098 -0.004 0.0055 -0.0126 0.0081 -0.0265 -0.0297 -0.0158 -0.0121 -0.0033 -0.0121 -0.0283 -0.0566 -0.0566 -0.0543 -0.0303 -0.0507 0.0339 0.024 0.011 0.001 -0.0257 -0.002 0.0193 -0.02 -0.0041 -0.0154 -0.0021 -0.0075 0.0232 0.0202 0.0396 0.0816 -0.0017 -0.0288 -0.009 0.0106 -0.0158 0.0174 0.0119 0.0304 0.0247 0.0221 0.0461 0.0684 0.0369 -0.0004 -0.0072 0.0028 0.0097 0.0056 -0.0006 -0.0345 -0.0522 0.0046 -0.0427 0.017 0.028 -0.0399 -0.0253 -0.0391 -0.0018 0.008 0.0101 0.0203 0.0018 -0.021 -0.0354 -0.0624 -0.0436 0.0483 0.0264 -0.0174 -0.0242 0.0272 -0.0041 0.0137 0.0171 0.0079 0.0422 0.0246 -0.0022 -0.0632 -0.009 0.0537 -0.0088 -0.0547 -0.0012 -0.0098 -0.003 -0.0262 0.0113 0.0525 -0.0071 0.0061 -0.0237 0.0043 0.0278 0.0069 -0.0179 0.017 -0.0096 -0.0027 -0.0154 -0.0145 -0.034 0.0394 0.0064 -0.0412 -0.0051 -0.0055 -0.0021 -0.0271 -0.0068 0.0074 0.0163 0.0036 0.0007 -0.0024 0.0427 0.0474 -0.0028 -0.0248 0.0008 0.0226 0.0273 0.0106 -0.0054 -0.0059 -0.0228 -0.0176 -0.0212 0.0137 0.0114 0.0232 -0.0191 -0.02 -0.004 0.0155 0.0134 -0.0005 0.0032 0.0018 -0.0002 0.0012 0.0001 0.0065 0.0022 0.0038 0.0003 0.0014 -0.0007 -0.0012 0.0007 -0.0008 -0.0003 0.0048 0.0001 0.0027 0.0007 -0.0003 0.006 0.0014 0.0024 0.0017 0.003 -0.0029 0.0009 0.0098 -0.0027 0.0025 0.0038 0.0054 -0.0023 -0.0026 0.0018 0.0035 -0.0029 -0.0018 -0.001 -0.003 0.0045 -0.0036 0.0031 0.0067 0.001 -0.0055 0.0065 -0.0116 -0.0051 0.0031 0.0058 0.0026 0.0 -0.0081 0.0085 -0.0039 -0.0109 0.0024 -0.0026 -0.0036 0.0012 0.0009 -0.0027 -0.0007 -0.0023 0.0054 -0.0039 -0.003 0.0026 -0.0029 -0.0003 -0.0099 -0.0004 0.0016 0.0058 0.0003 0.0034 0.0003 0.0028 -0.0033 -0.0077 0.0045 -0.001 -0.0019 0.005 0.0157 -0.0202 0.0135 -0.0059 -0.0053 0.0041 -0.0013 -0.0045 0.0059 0.0081 0.0003 0.0005 -0.0022 0.0025 -0.0032 0.011 0.0039 0.0032 -0.002 0.0022 -0.0017 0.0027 -0.0006 0.0087 -0.0049 -0.004 0.0062 -0.0043 -0.0006 -0.0017 -0.0002 -0.0014 0.0009 0.0028 0.0043 -0.0128 0.0061 -0.0058 -0.0004 -0.008 -0.0024 -0.008 0.0037 -0.0015 0.003 -0.0028 0.0042 0.0022 -0.0065 -0.0024 0.0082 -0.0074 -0.0054 -0.0068 0.0063 0.0059 -0.0033 0.0002 -0.0026 0.0018 -0.0013 -0.0002 -0.004 0.003 0.0007 -0.0033 -0.0018 0.009 -0.0018 0.0048 -0.0023 -0.0001 0.0043 -0.0001 -0.006 0.0005 0.0074 0.0006 0.003 -0.0029 -0.0023 0.0037 -0.0031 -0.012 -0.0121 -0.0234 -0.0506 -0.0581 -0.004 -0.0007 -0.0078 0.0059 0.0209 0.0175 -0.0093 -0.0019 -0.017 -0.0192 -0.0496 -0.0169 -0.0057 -0.0187 0.0053 0.011 0.0446 0.0274 0.0028 -0.0019 -0.0013 0.0065 -0.0057 -0.0029 0.035 0.0145 0.0153 -0.0211 -0.0087 0.0057 0.0014 -0.0083 0.0094 0.0064 0.0104 0.0414 0.0706 0.043 0.0494 0.0245 -0.0058 -0.0257 -0.0421 -0.063 -0.0475 -0.0159 0.0096 0.0156 0.0007 0.0121 0.0089 0.052 0.0035 -0.0288 -0.0093 0.0293 -0.0193 -0.044 -0.0069 -0.0045 -0.0091 -0.0327 0.0274 0.0172 0.0315 0.0279 0.0179 -0.0034 -0.0176 0.0144 -0.0013 0.0019 -0.0092 0.0046 0.0225 0.0044 0.001 -0.0023 -0.0313 -0.0219 -0.0028 -0.0402 0.0081 0.008 -0.0146 -0.0021 0.0021 0.0053 -0.0274 -0.0676 -0.0717 -0.0545 -0.0493 -0.004 0.0096 0.0099 0.0327 0.0176 0.0129 0.0277 -0.0101 0.0201 0.0411 0.0151 0.0156 0.0034 0.02 0.0258 0.0269 -0.0176 -0.0215 -0.0085 -0.019 -0.0559 0.0037 0.0279 0.0644 0.0856 0.073 0.0617 0.0326 -0.0172 -0.0326 -0.0178 0.0 -0.017 0.006 0.0126 0.0158 0.0353 -0.0018 0.0271 0.0157 0.01 0.0201 -0.0088 -0.0076 0.0064 -0.0231 0.0122 0.0052 0.011 -0.0038 -0.0231 -0.0337 -0.0214 -0.0088 -0.006 -0.008 -0.0113 0.0014 0.0121 0.0068 -0.0003 0.0186 0.0078 0.0027 -0.0205 -0.0139 0.0029 0.0128 0.0088 0.0075 -0.0009 0.0022 -0.0038 0.0024 -0.0226 0.0325 0.0197 -0.0272 -0.0038 0.028 0.0018 0.0007 -0.0118 0.0106 0.0139 -0.003 -0.0325 -0.0069 0.0226 0.0208 -0.0102 -0.0067 0.0125 0.0041 0.0017 0.0137 0.0095 0.0291 -0.0216 -0.0097 0.0314 0.026 0.0297 -0.0016 -0.0055 0.0334 0.029 0.019 0.0203 -0.0023 -0.0059 -0.0146 -0.0161 -0.0151 0.0359 0.0193 -0.0006 -0.0016 0.0237 0.0231 -0.0247 -0.0097 0.0034 0.0026 -0.0186 0.0031 -0.0457 -0.0283 0.0104 0.0743 0.0705 -0.0234 -0.0574 -0.0201 -0.0268 -0.003 0.0179 -0.0179 -0.0371 -0.0139 -0.0173 -0.0201 0.0235 0.015 -0.0682 -0.0172 0.0109 0.0116 0.014 0.0067 -0.015 0.0266 0.0001 -0.0347 -0.0152 0.0412 -0.0099 -0.033 0.0166 0.028 0.0187 -0.0042 -0.0023 -0.001 0.0422 -0.023 -0.0087 0.0062 0.0347 -0.0566 -0.0007 -0.0229 0.0201 -0.008 -0.0134 0.0082 -0.0267 0.0045 -0.0047 0.0309 0.0278 -0.0121 -0.0177 -0.0351 -0.0415 -0.0244 0.005 -0.0215 0.0289 -0.0338 -0.0516 -0.0311 -0.0157 0.0144 -0.0048 0.0181 -0.0352 -0.056 -0.0099 -0.0091 0.0139 0.0154 -0.0396 -0.0359 -0.0461 -0.0403 -0.0214 0.0198 0.011 -0.0299 -0.062 -0.0138 0.0154 0.0229 0.0103 -0.0147 0.0213 0.0033 0.0102 0.0093 -0.0143 -0.0346 -0.0366 -0.0203 0.0157 0.0239 0.0047 0.0017 -0.0133 -0.0062 -0.0059 -0.0097 0.0087 -0.0266 -0.0217 -0.0237 -0.0042 -0.0004 0.014 -0.0072 -0.0117 0.0075 0.0153 0.0297 0.0289 -0.0019 0.0079 0.015 0.0194 0.0188 0.0221 -0.0008 0.0139 -0.0087 0.017 0.0193 0.0461 0.0342 0.0022 0.0018 0.0056 -0.0058 0.0109 0.0182 0.0005 0.0061 0.0044 0.0055 0.0017 -0.0015 0.0122 -0.0338 -0.0384 -0.0476 -0.0039 0.0324 0.0388 0.0216 0.009 -0.0048 -0.0362 -0.043 -0.0454 -0.1181 -0.0529 -0.0261 -0.0017 0.0431 0.0461 0.0438 -0.0172 -0.002 -0.0138 -0.0467 -0.0389 -0.04 -0.0082 -0.0554 -0.0356 -0.0294 0.047 -0.0019 0.0067 -0.0001 -0.0195 -0.0113 -0.0131 -0.0341 -0.0399 -0.0445 0.0139 -0.0153 -0.0049 0.0573 0.0176 -0.0108 -0.0075 -0.0241 -0.0059 -0.0092 0.0455 0.0579 0.0252 0.0133 0.047 -0.0278 -0.0001 0.0302 0.0479 0.0081 -0.0278 -0.0284 -0.0102 0.0072 0.0704 0.0813 0.0582 0.0086 -0.0322 -0.0353 -0.0638 -0.0371 0.0476 0.0154 -0.0168 -0.0384 -0.0066 -0.0376 0.0025 0.0655 0.0869 0.0797 0.0051 -0.0632 -0.0301 0.0444 0.0218 -0.0091 -0.0201 -0.0246 -0.0192 -0.0105 -0.0093 0.0446 0.0667 0.0103 -0.0176 -0.0199 0.034 0.0083 0.024 0.0169 0.0425 0.0446 0.0137 0.0267 0.0202 0.0277 0.0022 0.0036 -0.0259 -0.0117 -0.009 0.01 0.0176 0.0406 0.0153 -0.0042 -0.0255 0.0173 0.0138 0.0197 0.0065 0.0128 -0.0068 0.0076 0.0027 0.0133 0.0075 -0.0225 -0.0309 -0.0154 -0.0096 -0.0139 -0.0152 -0.0186 -0.0354 0.0022 0.0024 0.0101 0.0054 0.008 0.0037 -0.0137 0.0047 -0.0039 -0.007 -0.0135 -0.005 0.0219 0.0081 -0.0013 0.0035 0.0212 0.0083 0.0365 -0.0083 0.031 -0.0032 0.0097 -0.0334 -0.013 0.0061 0.0056 -0.0069 -0.0011 -0.0031 -0.0206 0.0159 0.0267 0.0047 -0.0044 0.0354 -0.0208 -0.0246 -0.0067 0.001 -0.0198 0.0066 -0.0087 -0.0452 -0.0087 0.0027 0.0156 -0.0085 0.0271 0.0038 -0.0156 -0.0142 -0.0009 -0.0208 0.003 -0.0131 0.0033 -0.0238 -0.0118 -0.0324 -0.0289 -0.0352 -0.0064 0.0638 0.0313 0.0294 0.0086 -0.0044 -0.0264 0.01 -0.0192 -0.0115 0.0008 -0.0337 0.0042 0.024 0.0276 0.0228 -0.0101 0.0222 -0.001 0.0041 -0.0152 0.0068 0.045 0.0064 0.0004 0.0003 -0.012 0.0172 0.0167 -0.0054 0.0095 -0.0196 -0.0294 -0.0089 -0.0593 0.0233 0.0537 0.0216 0.0413 -0.0107 -0.0075 0.0014 -0.0209 0.0128 0.0176 0.0138 0.0374 0.0223 0.0734 0.0267 0.0278 0.0753 -0.0154 0.0384 0.0045 0.0049 0.0159 0.0318 0.0433 0.0177 -0.0134 0.0047 0.0342 -0.0425 0.0497 0.0094 -0.0036 -0.0031 -0.0205 -0.0111 0.0033 -0.002 -0.0063 -0.0041 -0.0209 0.0044 -0.0383 -0.0411 -0.0539 0.0158 -0.0121 -0.0209 -0.0103 -0.0077 -0.0063 -0.0156 -0.0222 -0.0279 -0.0291 -0.027 -0.002 -0.0212 0.0106 0.0206 -0.0101 -0.0102 -0.0082 -0.0096 0.0036 -0.0151 -0.0063 -0.0015 -0.0191 -0.0135 -0.0233 -0.0013 -0.0008 0.0218 -0.0067 0.0044 0.0037 0.0105 -0.003 -0.0002 0.0008 -0.0072 -0.0013 0.0015 -0.007 -0.0008 -0.0019 -0.0006 0.0032 -0.0051 0.0031 0.0011 0.005 0.0055 -0.0051 -0.0041 -0.0019 -0.0005 0.0026 -0.0022 -0.0009 0.0028 0.0026 0.0003 -0.0051 0.0012 0.0041 -0.0016 0.0008 0.0102 0.0016 0.0119 -0.0043 0.002 0.0013 0.0 0.002 -0.0041 -0.0001 0.0026 -0.0042 0.004 0.0082 -0.0013 0.0014 0.0006 -0.0004 0.0024 -0.0021 -0.0064 0.0045 -0.0103 0.0019 -0.0003 0.0038 0.0092 0.0031 -0.0017 -0.0082 0.0022 0.0017 -0.0001 0.0037 0.0112 0.0019 0.0002 0.0001 0.0039 0.0022 0.0036 0.0044 -0.0016 -0.0037 0.002 0.0041 0.0072 0.0051 -0.0018 0.0095 -0.0037 0.0018 0.0146 -0.0083 0.0015 -0.004 0.0101 -0.0044 0.0003 -0.0015 -0.0042 -0.0027 0.0058 -0.0009 -0.0015 -0.0024 0.0025 -0.001 -0.0052 -0.0081 0.0012 0.0 0.0069 -0.0099 0.0057 0.0075 0.0095 -0.0099 -0.0095 -0.0013 0.0056 0.0031 -0.0015 -0.0032 -0.0053 -0.0049 0.002 0.0067 -0.0036 -0.0056 -0.0037 -0.0006 -0.0088 -0.0036 0.0001 -0.0027 0.0022 -0.0002 -0.0086 -0.004 -0.0007 0.0013 -0.0031 -0.0029 -0.0056 0.002 0.0081 -0.0007 0.0034 0.0021 -0.0024 -0.004 0.0023 -0.0067 0.0015 -0.0036 0.0006 -0.001 -0.0042 -0.0044 0.0013 -0.0007 0.0001 0.0003 0.0016 0.0021 0.0053 -0.0017 -0.0021 0.0095 -0.0028 -0.0036 0.0001 -0.0012 0.0001 0.007 0.0038 0.015 0.0192 0.0359 0.0307 0.0269 0.013 0.0282 0.0191 0.0121 -0.0012 -0.0014 0.0074 0.0167 0.0372 0.0362 0.0139 0.0371 0.0017 -0.0078 -0.0076 0.0242 0.0141 -0.0129 -0.0104 0.0005 -0.0062 -0.0204 -0.0392 -0.0155 -0.0113 0.0045 0.0012 0.0012 0.0256 0.019 0.0156 0.008 -0.008 -0.0152 -0.0406 -0.0223 -0.0573 -0.042 -0.039 0.023 0.0362 -0.0111 -0.0061 0.0174 0.0128 0.0079 0.0053 0.0113 0.0073 -0.0048 0.0097 0.0112 0.0321 0.0223 -0.0318 -0.0393 -0.0279 0.0088 0.0127 -0.0003 -0.0157 -0.0267 -0.0207 0.0135 0.0265 0.0235 -0.0472 -0.0362 -0.036 -0.0115 -0.0202 0.036 0.0159 -0.0557 -0.0384 -0.0584 -0.0354 -0.0629 -0.0745 -0.0268 -0.0094 -0.018 -0.0132 -0.0113 -0.0147 -0.008 -0.0167 0.0115 0.0031 0.0006 0.0263 0.0297 -0.0033 -0.0298 0.0339 0.0209 0.0048 -0.0009 0.0343 -0.0042 -0.004 0.048 0.053 0.0225 0.0066 0.0369 0.0423 0.0311 0.0089 -0.0011 -0.0129 -0.0293 0.014 0.0149 0.0183 0.0136 0.0143 -0.025 -0.0045 0.0083 0.0007 -0.0257 -0.0075 0.0146 0.0179 -0.0031 0.0229 0.0174 0.0005 -0.0118 -0.0409 -0.0474 -0.0045 0.0226 0.0011 -0.0048 -0.0107 -0.0078 -0.0243 -0.0121 -0.0144 -0.013 0.0112 0.0038 -0.0173 0.0071 -0.004 0.0058 -0.0022 -0.0092 0.0033 0.0032 -0.0018 0.0124 0.0188 0.0164 0.0273 0.0297 -0.002 -0.0193 0.0058 0.0109 0.0057 0.0153 -0.0089 0.0066 0.0147 0.0187 -0.0308 -0.0111 0.0027 -0.0033 0.0026 -0.0006 0.0082 0.0161 -0.0091 -0.0169 0.0084 0.0565 -0.0069 -0.0077 -0.0063 -0.0052 0.0033 -0.0008 0.014 0.0079 -0.0074 -0.0159 -0.0033 -0.0069 0.0365 0.0033 -0.0189 -0.0042 0.0121 0.0003 -0.0318 -0.008 0.011 -0.0023 -0.0153 -0.0286 0.0187 0.0125 -0.0243 -0.0701 0.0086 0.0077 0.0061 -0.0383 0.0034 0.0055 0.0184 -0.0044 -0.0073 -0.0006 0.0372 -0.0112 0.0017 0.0113 0.0609 0.016 -0.0109 -0.0357 0.0246 0.0225 0.0001 -0.0124 -0.0161 0.01 0.0323 -0.0185 0.0116 0.0565 0.0437 -0.0161 -0.0053 0.0048 0.0055 -0.0028 0.0459 0.0356 0.0243 0.0467 -0.0121 -0.0148 0.0226 0.0251 -0.0164 0.0003 0.0131 -0.0132 -0.0059 0.0402 0.0202 0.0308 0.014 -0.0003 -0.0515 -0.0256 0.0088 0.0168 0.0022 0.0073 -0.0067 -0.0263 0.014 0.0362 -0.0516 -0.0296 -0.0309 0.0118 0.0033 -0.0134 -0.0163 -0.0226 -0.0004 -0.003 -0.0256 -0.014 -0.0219 -0.0408 0.0134 -0.0105 0.0074 -0.0072 -0.0227 -0.028 -0.0166 -0.0016 -0.0066 -0.0057 -0.0244 -0.0249 -0.0149 0.0222 0.0201 -0.0091 0.0109 0.0199 0.0036 -0.0175 -0.0128 0.0017 0.009 0.0082 0.0208 0.0106 0.0195 0.0237 0.0073 -0.0077 0.0043 -0.0113 -0.0001 0.016 0.0042 -0.0033 -0.0115 0.0122 0.0322 0.0459 0.023 0.0192 0.0044 0.0048 -0.0022 0.012 0.0082 0.0013 0.007 0.0094 0.0339 0.0095 0.0406 0.0318 -0.002 0.0187 -0.0319 -0.0225 -0.0178 -0.0156 -0.0029 -0.0055 0.0014 -0.0115 0.0019 0.04 0.0518 0.0285 0.0089 -0.0255 -0.0025 -0.0163 -0.0076 0.0075 -0.0092 -0.0425 -0.037 -0.0241 0.0238 0.0048 0.0124 0.0361 -0.0217 -0.005 -0.0056 -0.0114 0.0005 0.0007 -0.0282 -0.0561 -0.0852 -0.0478 -0.0143 -0.0406 -0.0087 -0.0016 0.0101 0.0394 0.0154 0.0198 0.0117 -0.0126 -0.0195 -0.001 0.003 0.026 0.0057 0.0145 0.0191 0.025 0.0271 0.0052 -0.009 0.0031 0.0198 -0.0134 0.0073 0.0504 0.0402 0.0555 0.0294 -0.0099 -0.0237 0.0023 -0.0175 0.0184 0.0166 -0.0207 -0.0207 -0.0213 0.0335 -0.0172 -0.0296 -0.0009 -0.0587 -0.0403 -0.023 0.0006 0.0347 0.0145 -0.026 -0.0534 -0.0384 -0.0403 0.0016 0.0134 -0.0133 -0.004 0.0332 0.0072 0.0081 0.0142 0.008 -0.019 -0.0535 -0.0398 -0.0447 -0.0033 0.0259 0.0343 0.0059 -0.0298 0.0353 0.0108 -0.0051 -0.0068 -0.0213 -0.0192 -0.0127 0.0059 -0.01 0.0005 0.0125 -0.0085 -0.0049 0.001 -0.0057 -0.0097 -0.0014 -0.0124 -0.0162 -0.0158 0.0046 -0.0412 -0.0227 0.0281 -0.0235 -0.0115 -0.0044 0.004 0.0008 0.0199 0.0376 0.0494 0.0413 0.0281 0.0077 0.0124 0.0354 0.013 0.0178 0.0396 0.0147 0.0076 0.0061 0.0082 0.0358 0.0279 -0.0073 0.0109 0.0209 0.0021 -0.0004 0.0003 -0.001 -0.0126 0.0069 0.002 -0.0013 -0.0142 -0.0321 -0.0178 0.0226 0.005 -0.0053 -0.0122 -0.0033 -0.0197 -0.0005 -0.0026 0.0002 -0.0097 0.014 -0.0327 0.0016 0.0328 0.0067 -0.0007 -0.026 -0.0189 -0.0107 -0.014 0.0125 -0.0059 0.0071 0.0091 0.0034 0.0271 0.0496 0.0037 0.0059 -0.0136 0.0361 -0.0037 0.0263 0.0102 0.0169 0.0298 0.0349 0.0395 0.0331 0.0663 0.0105 0.0085 -0.0256 0.0081 0.0019 -0.0022 -0.0139 -0.0026 -0.014 0.0006 -0.0093 -0.0255 0.0411 0.0193 0.0127 -0.016 0.0305 0.0291 0.0302 -0.0173 -0.0272 -0.0183 0.02 -0.003 0.0126 -0.0047 -0.0364 -0.0213 -0.0179 0.0075 0.002 -0.0036 -0.017 -0.0126 0.0068 -0.0296 -0.0575 -0.0634 -0.0731 -0.0416 0.0517 0.0348 0.0258 0.0218 0.0137 -0.0033 0.0167 0.0112 -0.0366 -0.0344 -0.0542 -0.0695 -0.0603 0.006 0.0369 0.0058 0.0233 0.0052 0.007 0.0159 -0.0078 -0.0256 0.012 -0.0666 -0.045 -0.0224 -0.0617 -0.0146 0.0028 0.005 0.0022 0.0184 0.0312 -0.0019 -0.0269 0.0558 -0.0067 -0.0157 -0.0466 -0.0697 -0.0272 0.0062 -0.0045 0.0193 -0.0107 0.0099 0.0248 0.0025 0.0209 0.0222 0.0241 -0.0159 0.0126 -0.0293 -0.0267 -0.0098 0.0152 0.0016 0.0215 0.0301 0.0245 0.0474 0.0197 0.019 0.0066 0.0142 0.0097 -0.0152 -0.0167 -0.0041 -0.0067 -0.0044 -0.0061 -0.0068 0.015 0.0224 0.0428 0.0371 0.0123 0.0167 0.005 -0.0233 -0.0271 -0.004 -0.0007 0.0008 0.0028 -0.0068 0.0007 -0.0003 0.0011 -0.0033 -0.0025 -0.0033 -0.002 0.0 -0.0003 0.0043 0.004 0.004 -0.0044 -0.004 0.0038 -0.0023 0.0046 -0.0011 -0.0034 0.0043 0.0025 -0.0037 -0.0022 0.0066 0.0053 -0.0143 0.0026 0.0027 0.0023 0.0029 0.0001 -0.0024 0.0055 0.0026 -0.0014 -0.0025 -0.0019 0.0064 -0.0056 -0.0033 0.0067 -0.0022 0.0069 0.0089 0.0014 -0.0012 0.0045 0.0024 0.0009 0.0009 0.0028 0.0021 0.0104 0.0035 -0.003 0.0027 -0.0012 0.0081 -0.0075 -0.0062 -0.0002 0.002 -0.0014 0.0026 -0.0007 -0.0046 -0.0043 0.0027 0.0143 -0.0078 0.003 -0.0019 0.0086 -0.0002 0.0023 -0.0012 -0.0062 -0.0031 0.0012 -0.0075 0.0087 -0.0084 -0.0104 0.0005 -0.0027 -0.0061 -0.0013 0.0006 0.0024 0.0042 -0.0057 -0.004 0.0046 0.0024 0.0084 0.0018 -0.0007 0.0019 -0.0051 0.0028 -0.0047 0.0056 -0.0041 -0.0037 0.0056 -0.0024 0.0099 -0.0061 -0.0004 -0.008 0.0055 0.0039 -0.0018 -0.0044 0.002 -0.0004 0.0015 -0.0077 0.0065 0.0069 0.016 -0.0051 0.0034 0.0023 -0.0002 -0.0004 -0.0014 0.0022 0.0033 -0.0034 -0.0018 -0.001 -0.0003 0.0009 -0.001 -0.0038 0.0015 0.0023 -0.0003 0.0016 -0.0025 -0.0019 -0.0021 0.0015 -0.0001 0.0011 -0.0008 0.0049 -0.0048 -0.0034 0.0012 0.0031 0.0005 -0.0006 0.0014 -0.0064 -0.0032 0.0079 0.005 0.0007 -0.0023 0.0001 -0.0013 -0.0012 -0.0017 0.01 0.0226 0.0172 0.0251 0.012 0.0014 -0.0026 -0.0034 -0.0037 0.0084 -0.0067 -0.002 0.0102 -0.0094 0.0109 0.0094 -0.0018 -0.0035 -0.0228 -0.0013 0.0216 -0.015 -0.0016 0.0025 0.0026 -0.0124 -0.0088 -0.0292 0.0007 -0.0054 -0.0204 -0.0058 -0.0092 -0.0312 -0.0214 -0.0304 0.0179 0.0081 -0.0125 0.0165 -0.0074 -0.0218 -0.013 -0.0041 -0.0019 -0.0327 -0.0318 -0.0377 0.0221 0.0121 0.0209 -0.0155 -0.017 0.0025 0.0096 0.0044 -0.0143 0.0009 0.0263 0.0765 0.0875 0.0414 -0.0141 -0.0004 -0.0031 0.0246 -0.0199 -0.0388 -0.0285 0.0013 0.0434 0.0564 0.0287 0.0053 -0.0299 -0.0275 -0.0159 0.004 0.0013 -0.0044 0.0328 0.0243 -0.0057 -0.0096 -0.0638 -0.0943 -0.07 -0.0684 -0.0196 -0.0213 -0.0191 -0.0093 0.0113 0.0346 -0.0124 -0.015 -0.0462 -0.0747 -0.0675 -0.063 -0.0105 0.0236 0.012 -0.0105 -0.0378 -0.0036 0.0142 0.0947 0.081 0.0266 0.0379 0.0305 0.05 0.0142 -0.0197 0.0073 -0.0096 -0.0019 -0.0175 -0.0131 -0.004 0.0621 0.0745 0.0736 0.0737 0.0938 0.0452 0.0182 0.0052 0.012 0.0142 -0.0048 0.0118 0.0016 0.0217 0.0344 0.0098 0.0422 0.0474 0.0378 0.0055 -0.0125 -0.0093 0.0111 0.0107 0.006 -0.016 -0.006 -0.0066 0.0076 -0.0024 -0.0168 -0.012 0.0012 0.0013 0.0015 -0.0019 0.0021 -0.0041 -0.0207 -0.0226 -0.0281 -0.0052 0.0181 -0.0057 -0.0083 -0.0015 -0.0064 -0.0028 0.0134 0.0031 0.007 -0.0045 -0.0119 0.0025 0.0182 0.0174 -0.0284 0.0053 0.0004 0.0263 0.0051 0.0067 0.0067 -0.0022 0.0048 -0.0134 -0.0011 0.0162 0.0466 0.0025 -0.0148 0.0193 -0.0046 -0.0135 -0.0162 -0.0029 -0.0217 0.009 -0.0101 0.0426 0.0292 0.0461 0.0503 0.0145 0.0112 -0.0274 -0.0214 0.0435 0.0131 -0.0026 -0.0392 0.0193 -0.0314 0.0546 0.0588 0.0017 0.0309 -0.0126 -0.0075 -0.007 0.02 0.0452 0.0102 0.0027 -0.0151 0.0217 -0.0129 0.0165 -0.0198 -0.0085 -0.0014 -0.0126 0.0058 0.0085 0.0434 -0.0005 -0.0108 0.0057 -0.019 -0.004 -0.0466 -0.0267 0.0231 0.0036 -0.0317 0.0261 0.0376 -0.0114 -0.0554 -0.0231 0.002 0.0238 -0.0245 -0.0014 0.0267 0.0191 0.0109 -0.0159 0.0012 0.0289 -0.0136 -0.0157 -0.002 -0.0097 0.0244 -0.0468 0.0233 0.03 0.0198 -0.0175 -0.014 0.0104 0.0211 0.0059 0.0017 -0.0358 -0.0393 -0.0073 -0.033 0.0336 0.0447 0.0336 0.0314 0.0018 0.0075 0.009 -0.0005 -0.0141 0.0288 -0.0498 -0.0347 -0.0168 0.0297 0.0479 0.0297 0.0245 -0.0211 -0.0053 -0.0102 0.0137 0.0026 0.0177 -0.0434 -0.0146 0.0189 -0.0016 0.0246 0.0073 0.0076 -0.0231 -0.0012 -0.0118 0.0101 0.0426 -0.0037 -0.0266 -0.014 0.0009 -0.0419 0.0087 -0.0471 -0.0175 -0.0126 -0.0034 0.0015 0.0073 0.0245 0.0165 -0.0148 -0.0001 -0.027 -0.028 -0.0094 -0.0087 -0.0078 0.0019 0.0041 -0.0055 -0.0224 -0.0017 -0.0072 0.0029 -0.004 0.0133 0.0143 0.0175 0.004 -0.0013 0.0011 -0.0047 -0.0153 -0.014 -0.0228 -0.0347 -0.0008 -0.025 0.0157 -0.0231 0.0066 -0.0073 -0.0081 -0.0053 -0.0038 0.007 0.0156 0.0037 0.0281 0.0461 0.0112 -0.009 -0.0155 -0.0135 -0.0026 0.0018 -0.0068 -0.0012 0.0004 0.0028 0.0196 0.0601 -0.0021 -0.0055 -0.0304 -0.0018 -0.0293 0.0049 -0.0042 0.0105 0.0129 0.0031 0.0175 0.0229 0.0308 -0.0172 -0.0391 -0.062 -0.0446 0.0068 0.0116 0.0223 0.0232 -0.0073 0.0372 0.0111 -0.0064 0.0117 -0.0243 0.0144 0.0058 0.0175 0.0142 0.0138 0.0023 -0.0016 0.0194 0.0314 -0.0384 -0.0284 -0.0157 -0.005 0.0106 0.0376 0.0279 0.035 0.0566 0.0314 -0.0059 -0.0202 -0.0193 -0.0139 -0.0643 -0.0577 -0.0308 -0.0498 -0.046 -0.0388 -0.0081 0.0062 0.0188 -0.0097 -0.0201 -0.0161 0.0069 0.0169 0.006 0.0038 0.0101 -0.0531 -0.0643 -0.0458 -0.0063 0.0187 0.0032 0.0036 0.017 0.0563 0.0608 0.0055 -0.0166 -0.0448 -0.011 -0.0241 -0.0498 -0.0187 0.0473 0.0342 -0.0134 -0.01 -0.0072 0.0316 0.043 -0.0143 -0.0123 0.0148 0.0109 -0.0252 -0.0153 0.0006 0.0089 0.0003 -0.0066 -0.0224 -0.0206 -0.0629 -0.019 0.018 0.0228 0.0357 -0.0183 0.0042 -0.0215 0.0016 -0.003 -0.0089 -0.0098 -0.0197 -0.0114 0.0007 0.005 0.0373 0.0113 0.0072 -0.0052 -0.0094 -0.0142 0.0078 0.0032 0.0199 0.0011 -0.0096 -0.0109 -0.0369 -0.0366 -0.0026 -0.0103 -0.0185 -0.0052 -0.01 -0.0095 0.0041 -0.0008 0.0092 -0.0185 -0.0153 -0.0136 -0.0187 -0.0009 0.0102 -0.0029 0.0041 -0.0072 -0.0196 -0.0164 -0.0232 -0.0273 0.0292 -0.028 0.0019 -0.0195 0.0211 -0.0356 0.0095 -0.0081 -0.0104 -0.0272 -0.0424 -0.028 -0.0121 0.0799 0.0464 0.0753 0.0025 0.0398 -0.0132 0.0317 -0.0004 0.0045 -0.0033 0.0003 0.0097 0.0194 0.0185 0.021 0.0279 0.0232 0.0326 -0.0089 0.0076 -0.0421 0.0156 0.0209 0.025 0.0054 0.0454 0.0213 0.0237 0.0226 0.0193 0.0282 -0.0013 -0.0096 -0.0222 0.0 0.0058 0.0112 -0.0133 -0.0144 0.0192 -0.0176 -0.0016 -0.0333 0.02 -0.0239 0.0157 -0.0443 -0.0264 -0.0209 -0.0067 -0.0214 -0.0305 0.0032 0.0093 -0.0166 -0.0276 0.0019 -0.0298 0.0128 0.0092 -0.0037 -0.007 0.0001 -0.0397 -0.0269 -0.0644 -0.0506 -0.0283 -0.042 0.0224 -0.0238 -0.0024 0.0049 0.0068 -0.0104 -0.0111 -0.0321 -0.0054 0.0003 -0.0234 0.0148 0.0243 0.0463 0.017 0.0258 0.0142 -0.0092 -0.0076 -0.0003 0.0113 0.0089 0.0334 0.0116 0.0125 -0.0237 -0.0131 0.0069 0.029 -0.0092 -0.0108 -0.0063 0.0028 0.0082 0.0267 0.0475 0.0172 0.0305 0.0032 -0.0214 -0.0123 0.0136 0.012 -0.0017 0.0019 0.0067 -0.0004 0.0091 0.0037 0.0126 0.0065 -0.0083 0.0052 -0.0364 -0.0157 0.0062 0.005 0.0032 0.0005 0.003 -0.0014 0.0102 0.0012 0.0036 0.002 0.0082 -0.0041 0.0024 0.0032 0.0027 0.0001 0.0012 0.0029 0.0024 -0.0021 0.0017 0.0037 -0.0039 -0.0017 0.0029 0.0031 -0.0047 0.0001 -0.0006 -0.0027 -0.0078 -0.0022 -0.0005 0.0037 0.003 0.0018 0.0019 0.0099 0.0079 -0.0054 0.0021 -0.0046 0.0089 -0.009 -0.009 -0.0142 -0.0062 -0.0058 0.0035 0.0017 -0.0049 -0.006 -0.0059 0.0021 -0.0028 0.0007 -0.0078 -0.0011 0.0068 -0.0044 0.0018 0.0015 -0.0107 -0.0069 -0.0028 -0.0045 -0.0066 -0.003 -0.0032 -0.0051 0.001 -0.0003 0.0004 -0.0074 -0.0087 -0.0033 0.004 -0.0004 -0.0029 -0.0039 0.0023 0.0087 0.0007 0.0014 0.0053 0.0059 -0.0094 0.0118 -0.0093 0.0046 0.01 -0.0014 0.006 0.0066 -0.0003 -0.0022 0.0131 0.0041 -0.0027 -0.0082 -0.0006 -0.0069 -0.0027 0.0028 -0.0037 -0.0076 -0.0058 -0.0014 -0.0023 -0.0076 0.001 0.0034 -0.0018 0.0119 0.0078 -0.0005 -0.0079 0.0019 -0.0002 -0.0016 0.002 0.0012 -0.0131 -0.0011 -0.0052 -0.0017 -0.0026 -0.0029 0.0014 -0.0057 -0.0003 -0.0061 0.0005 -0.0035 0.0025 0.0009 -0.0102 0.0039 0.0025 0.0002 0.003 -0.0052 0.0 0.0037 0.0048 -0.0023 0.0005 0.0038 0.0036 -0.0009 -0.0003 0.0076 0.0029 -0.0011 -0.0026 -0.0009 -0.0023 0.0034 -0.0024 0.0012 0.0033 -0.002 0.0011 0.0008 0.0008 0.0005 -0.0014 -0.0014 -0.0008 0.0014 -0.0028 0.0026 0.0007 -0.0036 0.0207 0.0098 -0.009 -0.0096 0.0025 0.0024 -0.0074 -0.0174 0.0021 0.0 0.005 0.0005 -0.0006 0.0012 -0.0154 -0.0186 -0.0004 -0.029 -0.0174 0.0154 0.016 0.01 0.0042 -0.0028 -0.015 -0.0095 0.0046 0.0118 0.0356 0.023 -0.0237 0.0115 0.0298 0.0587 0.0333 0.0189 -0.02 0.0124 0.0311 0.0452 0.021 0.0154 0.0257 -0.0186 0.0203 0.0037 -0.0283 0.0008 -0.0127 0.0146 0.0271 0.0321 0.0034 -0.0015 -0.0072 0.0066 0.0339 0.0458 0.0139 -0.0164 -0.0003 -0.0074 0.0126 0.0299 0.0309 0.0002 -0.0215 -0.0379 -0.0365 0.0071 -0.0262 -0.0102 -0.0029 0.018 0.0069 0.0127 0.006 -0.025 -0.0488 -0.0127 -0.0544 -0.0431 0.0048 0.0233 -0.01 -0.0011 -0.002 -0.0141 0.0023 -0.003 -0.0087 -0.0676 -0.0496 -0.0365 -0.0326 -0.0318 -0.0331 -0.037 -0.0326 -0.0424 -0.0179 -0.0372 -0.02 0.0126 -0.0499 -0.0464 -0.0292 -0.0102 -0.0897 -0.0869 -0.0239 0.0062 0.0122 0.0134 -0.0111 -0.0385 0.0168 0.0249 0.0153 0.0112 -0.0193 -0.0077 0.022 0.021 0.0157 0.0186 0.0069 0.0084 0.0106 0.0451 0.0602 0.0695 0.0488 0.0315 0.0279 0.041 0.0317 0.0204 0.0206 0.0017 -0.0055 0.0018 -0.0066 -0.0138 -0.0027 -0.0081 0.0149 0.0281 0.0114 0.0096 0.0087 -0.0044 0.0027 0.0018 -0.0073 -0.0083 -0.0196 -0.0246 -0.0167 0.006 0.0006 0.0119 0.002 0.0 0.001 0.0028 0.022 0.005 -0.0141 -0.0008 -0.0058 0.0042 0.0222 0.0253 0.0104 0.0029 -0.0105 -0.0104 -0.0075 0.0049 0.0001 -0.019 -0.009 -0.0052 0.0003 0.0396 0.0068 0.0187 0.0012 -0.016 -0.0216 -0.0056 -0.037 -0.0098 -0.0013 -0.0521 0.0055 0.0107 0.001 -0.0162 -0.0096 -0.0154 -0.0117 0.0147 -0.0015 -0.0128 -0.0033 -0.0211 -0.0055 -0.0102 0.0003 -0.0015 -0.0456 -0.0855 -0.0376 0.0316 0.0154 -0.0209 -0.003 -0.0059 -0.0292 0.0272 0.0297 -0.0145 -0.0215 -0.0124 -0.0216 0.0339 0.0405 0.0123 0.0105 0.008 0.0029 -0.0364 -0.0312 -0.0167 -0.0339 -0.001 -0.0545 0.0369 0.034 -0.0066 0.0021 0.0226 0.0148 0.0338 -0.0668 -0.0279 -0.027 -0.0316 -0.0335 -0.0357 -0.027 0.0135 -0.0256 0.0219 0.0052 0.0079 0.017 -0.0001 -0.0267 -0.0051 -0.0049 -0.0483 -0.0481 0.0091 -0.0302 -0.0184 -0.0083 0.0008 0.003 0.0127 0.0136 0.0319 0.0127 0.0003 -0.0095 0.028 0.0199 -0.028 0.0266 -0.0087 -0.0257 0.0184 -0.0398 0.0142 -0.0031 -0.0035 -0.048 0.0007 0.0648 0.0005 0.0411 0.026 0.0 -0.0003 -0.008 -0.0218 -0.0235 0.0229 0.0191 -0.0086 0.0366 0.0314 0.0126 0.0186 0.0194 0.0086 -0.0063 0.0006 -0.0118 0.0012 0.0363 0.0605 -0.0002 0.039 0.0255 0.0214 -0.026 -0.0553 -0.0083 -0.0227 -0.0007 -0.0154 -0.006 0.0109 0.0167 0.0204 0.0232 0.0313 0.0083 -0.0362 -0.0332 -0.0086 -0.0186 -0.0203 -0.0274 -0.0213 -0.0176 -0.0152 -0.0377 -0.0376 -0.0147 0.0243 0.0134 -0.0054 -0.0168 -0.008 -0.03 -0.0182 -0.0028 0.0025 -0.0037 -0.0251 -0.0333 -0.0057 0.0021 -0.0019 -0.0046 -0.0228 -0.0317 0.0045 0.0176 0.0323 0.0463 0.0424 0.0253 -0.0054 0.0133 -0.0436 0.0037 -0.0005 -0.0222 -0.0311 -0.0062 -0.0056 0.036 0.0683 0.0506 0.0406 0.0204 0.0254 0.0057 0.0169 -0.0022 0.0143 0.0074 -0.0223 -0.0252 -0.0011 0.0406 0.0309 0.0169 0.0301 0.0419 -0.0157 0.0041 0.0258 0.0089 -0.0031 -0.0035 -0.0017 -0.0483 -0.0554 0.0115 0.0391 0.0202 -0.0173 -0.0455 -0.0227 -0.0226 0.012 0.0246 -0.016 -0.0086 -0.0615 -0.055 0.0003 0.0578 0.0226 -0.0099 0.0274 -0.0108 0.0066 0.0197 0.0343 -0.0426 -0.0203 -0.045 -0.0111 -0.0006 0.044 0.0454 0.0186 0.0304 0.0547 0.0648 0.0082 0.0079 -0.0264 -0.0347 0.0333 0.0074 0.028 0.0034 -0.0163 0.0404 0.0337 0.0895 0.0774 0.0249 0.0267 -0.0011 0.0063 0.0411 0.045 0.0757 -0.0153 -0.0093 0.0537 -0.0081 0.0181 0.008 -0.0042 -0.002 0.0056 0.011 0.049 0.0799 0.0432 -0.0116 -0.0155 -0.0085 -0.0167 -0.0588 -0.0431 -0.0483 -0.0049 -0.0058 -0.0172 -0.0421 -0.0312 -0.0394 -0.0382 -0.0202 -0.0128 -0.0292 -0.0739 -0.0403 -0.0619 -0.0151 0.0014 0.0033 -0.0028 -0.012 -0.0148 -0.0369 -0.0126 -0.0237 -0.024 -0.0248 -0.0198 -0.0301 -0.0181 0.0114 -0.0025 0.0048 0.0036 -0.0131 0.032 0.0202 0.0121 0.0169 0.0145 0.0176 0.0126 0.0031 0.0097 0.0033 0.0054 0.0059 -0.0332 0.0229 -0.0046 0.0171 0.0132 0.0189 0.0095 0.0082 -0.0023 0.0012 0.0047 -0.009 0.0133 -0.0059 0.0051 0.0036 0.005 0.0116 0.0457 0.0014 0.0244 -0.0244 -0.0089 -0.0235 -0.0035 -0.0323 -0.0167 0.0145 -0.0376 0.0214 -0.0258 0.0137 -0.0146 0.0318 -0.0345 -0.0009 -0.0004 0.0222 0.0017 0.0151 0.0331 0.0012 0.0151 0.0006 -0.0064 0.0027 0.0622 -0.0111 -0.0019 -0.004 0.0075 -0.0095 -0.0238 -0.0042 -0.0402 -0.0285 -0.0122 0.0417 0.009 0.0194 0.0032 0.0085 0.0112 -0.0079 0.004 -0.0261 -0.0063 -0.0007 -0.0248 -0.0353 0.0114 -0.033 0.0144 -0.009 -0.019 0.0117 0.0204 -0.0358 -0.0263 -0.0192 0.0259 0.0352 -0.0094 -0.0329 -0.0425 -0.0126 -0.0039 0.0035 0.0033 0.0227 0.0601 -0.0063 0.0111 0.0138 0.0053 -0.0297 0.0131 -0.0262 -0.0267 0.0163 0.0089 0.0175 0.0418 0.0499 0.0243 0.0066 0.0064 -0.0026 0.0015 0.0169 -0.0216 -0.0362 0.0071 -0.0086 -0.0113 -0.0148 0.0153 -0.0053 0.022 -0.0024 -0.0094 -0.0095 0.0054 0.0015 -0.0238 0.0041 -0.0181 -0.0337 -0.0313 -0.0131 0.0213 0.0125 0.0091 -0.001 -0.0123 0.0025 0.0008 -0.0185 -0.0068 -0.0035 -0.0156 -0.0075 -0.0271 -0.0184 0.0055 0.02 0.0012 -0.0014 0.0218 -0.0091 0.0151 0.019 -0.0037 0.0003 -0.0016 -0.0062 -0.0023 -0.0005 -0.0053 0.0024 -0.0025 -0.0023 -0.0057 0.0022 -0.0002 0.0006 0.0022 -0.0044 0.0004 -0.0006 -0.0018 -0.0006 0.0013 -0.0032 0.0046 -0.004 0.0002 0.0016 -0.0077 -0.0053 -0.0033 -0.0047 -0.0079 -0.0052 0.0054 0.0001 -0.0103 0.0061 0.004 -0.0009 0.0 -0.0018 0.0022 0.0042 -0.0051 0.0034 -0.0038 0.0015 0.0109 0.0016 -0.001 -0.0048 0.0016 0.0062 -0.0042 -0.0012 0.0055 -0.0037 0.0036 -0.0006 -0.0014 -0.0038 0.0111 0.0059 0.003 -0.0008 0.0008 0.0008 -0.0043 0.0056 0.0045 -0.0043 0.004 -0.0059 -0.0073 -0.0061 -0.0045 0.0006 -0.0012 -0.0018 -0.0034 0.0018 0.002 -0.0034 0.0015 -0.0033 0.003 0.003 -0.0074 -0.0071 -0.0047 0.0048 -0.0026 0.0007 0.0028 -0.0017 0.0033 0.0095 -0.0005 0.001 -0.0015 -0.0053 0.0045 0.0006 -0.0022 -0.0021 0.0031 -0.0032 0.0035 0.0053 -0.0053 0.0027 0.001 -0.0157 0.0043 -0.0063 0.0038 0.0029 0.0009 0.0045 0.0055 -0.0011 -0.0012 -0.0041 -0.0029 -0.0036 0.0035 -0.007 -0.0017 0.0059 -0.0032 0.0019 0.0017 0.0024 0.0005 0.0055 -0.0009 -0.0043 0.0006 0.0003 0.0042 0.0005 -0.0061 0.0007 0.0007 -0.0027 0.0006 -0.002 -0.0034 -0.0047 0.0004 0.0054 -0.0019 -0.0005 0.0025 0.0046 0.0006 -0.0006 -0.0006 0.0009 0.0039 -0.0027 -0.0083 -0.0003 0.0006 0.0003 0.0009 0.0011 -0.001 -0.0005 0.0001 0.0084 -0.006 -0.0044 -0.0003 -0.0172 -0.0031 -0.0035 -0.0139 -0.0214 -0.0112 -0.0103 -0.0052 -0.0034 -0.0044 0.0069 0.0087 0.0166 -0.0137 0.0092 0.0193 -0.0034 -0.0168 0.0004 0.003 0.0006 -0.0014 0.0105 -0.0014 -0.0048 -0.0392 -0.0304 -0.02 0.006 0.0174 0.0358 -0.0146 -0.0237 0.0086 0.0114 0.0139 -0.0073 -0.0057 -0.0132 -0.0056 -0.0266 0.0113 -0.0227 0.0247 0.0154 0.0363 0.037 0.0072 -0.0042 -0.0337 0.0061 0.0203 0.0339 0.0123 -0.0105 0.0086 0.0341 0.0326 0.0485 0.0056 -0.0064 -0.0135 -0.0094 0.0115 -0.0202 -0.0522 -0.0099 0.0009 -0.0027 0.006 -0.0178 -0.0312 -0.0228 -0.0017 -0.0138 0.0039 -0.0026 -0.0403 -0.0349 0.0211 0.0476 -0.0068 -0.0191 -0.0371 -0.0567 -0.0383 -0.0126 0.0058 -0.0171 -0.0015 -0.0117 0.0017 -0.0281 -0.025 0.0053 -0.011 0.0151 -0.0154 0.0301 0.0277 0.0179 0.0172 -0.0093 0.0168 0.0247 0.0045 -0.0203 -0.0038 0.019 0.0131 0.0446 0.0 0.002 -0.0089 -0.0089 0.016 0.0365 0.0213 -0.0074 -0.0223 0.0038 0.0198 0.017 0.003 -0.0203 -0.0201 -0.0089 0.0089 0.0185 -0.0059 0.0085 0.0174 -0.0075 0.0085 0.0219 0.0481 0.0182 0.0041 -0.0092 0.0018 -0.0007 0.0015 -0.0119 0.0112 -0.004 0.0114 0.0186 0.0009 -0.0082 0.0026 0.0076 -0.0089 -0.0019 -0.0058 -0.016 -0.0086 0.009 0.0108 0.011 0.0112 -0.0007 -0.0236 -0.0134 0.0046 0.0025 -0.0043 0.007 0.0165 0.0009 0.0117 0.0102 0.0136 -0.0032 0.0167 0.0077 0.0018 0.002 0.0101 -0.0001 0.0078 0.0314 0.009 -0.0068 -0.0074 -0.0037 0.0039 -0.0012 0.0344 0.0065 -0.0165 0.004 0.0119 0.0103 0.0196 -0.0258 -0.0192 0.0168 -0.0553 -0.0075 0.033 0.0032 0.0094 0.0076 -0.0202 0.0005 0.0049 -0.034 -0.0267 -0.0254 -0.0114 0.0007 -0.0192 -0.0077 0.001 -0.0142 -0.0031 -0.0088 0.0062 0.0111 -0.0064 -0.0223 0.0217 0.01 -0.0149 0.0188 -0.0167 -0.0135 -0.0171 -0.0116 -0.015 -0.0043 0.0074 0.0042 0.001 0.0426 0.0283 0.035 -0.0078 -0.0154 -0.006 0.0239 -0.0131 0.0004 -0.0096 0.004 -0.0181 0.0013 0.0353 0.0226 0.0522 0.0337 0.0232 -0.0112 0.0374 0.0029 -0.0069 0.0023 0.0407 0.0003 -0.0108 -0.021 -0.012 -0.0231 0.0246 0.0351 0.0255 0.0545 0.0187 -0.0184 -0.0075 0.0292 0.0071 -0.0535 -0.0238 0.0062 -0.0019 -0.017 -0.0051 0.0161 0.0281 0.0184 -0.0041 -0.0029 0.0397 0.0042 0.0107 -0.0372 0.0077 0.0022 0.0159 -0.0168 -0.0217 0.0034 -0.0107 0.0062 -0.0059 0.0102 0.0059 -0.0148 0.0174 -0.0088 -0.0187 0.0045 0.0249 -0.0411 -0.0191 0.0037 0.005 0.0007 -0.0187 -0.0015 