-0.52138287 -0.64348024 -0.17741065 0.2919863 0.40105486 -0.2618206 -0.5655026 -0.883163 -0.73762006 -0.31754634 1.0108591 -0.47899553 -0.39209726 -0.7149856 -0.05106625 0.6092649 0.66817224 -0.19923906 -0.43181682 -0.5201113 -0.42207065 0.24745946 0.41897047 0.16013967 -0.44024533 0.35392457 0.07684278 -0.029930534 -0.54457045 0.005122684 -0.106102556 0.8699834 -0.24049751 -0.61414963 -0.3963585 -0.3472844 0.86033624 0.018152706 -1.1793772 0.088664554 0.28717664 0.16368271 -0.09217987 -0.23435187 -0.16339055 -0.09831959 -0.14979662 0.20179793 0.20236622 0.12087347 0.38826483 0.014296198 -0.15532272 -0.4093198 0.04548256 -0.039007787 -0.80726856 -0.7976642 0.113817506 0.61425376 0.009691564 -0.69686687 -0.026429791 0.36205447 0.5993248 -0.469677 -0.56668365 0.194962 0.42066583 0.24042995 -0.2665171 -0.4240969 -0.0276777 -0.15671559 0.27184933 -0.29289114 -0.6588664 -0.21831848 0.108550176 0.45989314 -0.470504 0.11201584 0.4106282 0.55200016 0.07362737 0.3694639 0.47469848 0.3345904 0.51140475 -0.436061 0.9072311 0.24828202 -0.25912172 -0.4735658 -0.8827794 -0.32882708 -0.5521523 -0.3358715 -0.5310289 0.48165354 -0.105666585 0.15011925 0.11175626 -0.30892324 -0.7334768 -0.008600747 0.009890868 0.29390064 0.5566902 0.42142925 -0.120393075 -0.11954126 0.43866706 0.53313774 0.45644268 0.03317929 0.07143105 0.12782842 -0.18723305 0.22204517 -0.068617664 -0.9255479 -0.7264769 -0.98991996 -0.59514165
-1.718688 -2.5601876 -2.0112147 -1.5740373 -1.5185894